#ifndef __LIF_HPP
#define __LIF_HPP

#include "ap_int.h"

const float dt[30]={0.001,0.002,0.003,0.004,0.005,0.006,0.007,0.008,0.009,0.01,0.011, 0.012, 0.013, 0.014, 0.015, 0.016, 0.017, 0.018, 0.019, 0.02, 0.021, 0.022, 0.023, 0.024, 0.025, 0.026, 0.027, 0.028, 0.029, 0.03};

const float weights1[64][784] = {{-0.000345, -0.000345, -0.000345, -0.000345, -0.000345, -0.000345, 0.000393, -0.000345, 0.000393, -0.000345, 0.000393, 0.000393, -0.006589, -0.00664, 0.000393, -0.000345, -0.000345, 0.000393, 0.000393, -0.000345, -0.000345, 0.000393, -0.000345, -0.000345, -0.000345, -0.000345, 0.000393, -0.000345, -0.000345, -0.000345, 0.000393, 0.000393, 0.000393, -0.000345, -0.00297, -0.002442, 0.001249, 0.002817, 0.001563, 0.010684, -0.004115, -0.00819, -0.024842, -0.09477, -0.081741, -0.034513, -0.0011, -0.012708, -0.017453, -0.028142, 0.007831, -0.001882, -0.000345, 0.000393, -0.000345, -0.000345, -0.000345, 0.000393, -0.006612, 0.001952, 0.013262, -0.018866, -0.017971, -0.032632, -0.024516, -0.076823, -0.066377, -0.028145, -0.044891, -0.126616, -0.229963, -0.304898, -0.323873, -0.300526, -0.169326, -0.115218, -0.114635, -0.209793, -0.191359, -0.206832, -0.158887, -0.068216, -0.000345, -0.000345, -0.000345, 0.000393, -0.03384, -0.01375, 0.006374, 0.023637, 0.015793, -0.028509, -0.054488, -0.09482, -0.122726, -0.059669, -0.142993, -0.2434, -0.208371, -0.144874, -0.163275, -0.140647, -0.015531, 0.054688, 0.129811, 0.166456, 0.073498, -0.022394, 0.021279, -0.081145, 0.000658, -0.000345, 0.000393, 0.027067, 0.02932, 0.061255, 0.088868, 0.063364, 0.035548, -0.029766, -0.049532, -0.048404, -0.040974, -0.005813, -0.02697, -0.010868, -0.012442, -0.027007, -0.027275, -0.052281, 0.023187, 0.0609, 0.097663, 0.151201, 0.238479, 0.170516, 0.197232, 0.051539, 0.023285, -0.044313, 0.000393, -0.000345, 0.030328, 0.096647, 0.064193, 0.002356, 0.039673, -0.018192, -0.053934, -0.000881, -0.048893, -0.071217, -0.035645, -0.03957, -0.032442, -0.043239, -0.03222, 0.02222, 0.019221, 0.072713, 0.123239, 0.128352, 0.221735, 0.297469, 0.23573, 0.154672, 0.08875, -0.022257, -0.000345, 0.035283, 0.013617, 0.007743, 0.044595, 0.001262, -0.050002, -0.080968, -0.060378, -0.04088, -0.045333, -0.087494, -0.079188, -0.05831, -0.079257, -0.107693, -0.12129, -0.078257, -0.036234, 0.053504, 0.087653, 0.002668, 0.123046, 0.298444, 0.396846, 0.258831, 0.316189, 0.115235, -0.000345, 0.063481, -0.058791, 0.016586, 0.061234, 0.035433, -0.098713, -0.056694, -0.012116, 0.034969, -0.006247, -0.053346, -0.094532, -0.102063, -0.043493, -0.026483, -0.041616, 0.01034, 0.061805, 0.065616, 0.08326, 0.01172, 0.032107, 0.146234, 0.281497, 0.293893, 0.413435, 0.141295, -0.000345, -0.013691, -0.115486, 0.038183, 0.055678, 0.005512, -0.044129, -0.034621, -0.010463, 0.032654, -0.025661, -0.043474, -0.065569, -0.029264, -0.018493, 0.007292, 0.031884, 0.027778, 0.067747, 0.084842, 0.058282, 0.028569, 0.061302, 0.053873, 0.241889, 0.397103, 0.368022, 0.117264, 0.000393, -0.039796, -0.08042, -0.007909, 0.010633, -0.051397, -0.004526, 0.032926, 0.061555, 0.010797, -0.069517, -0.07678, -0.066197, -0.007429, -0.04507, -0.027501, 0.022073, 0.036477, 0.048572, 0.091136, 0.019177, 0.000123, 0.025731, 0.040536, 0.193713, 0.37659, 0.320586, 0.075453, 0.000393, -0.034964, -0.010591, 0.019719, 0.071961, -0.007386, -0.021341, 0.011093, 0.045912, -0.064707, -0.127944, -0.121394, -0.024013, -0.018252, -0.054959, -0.069874, -0.054229, -0.049272, -0.017209, 0.000868, -0.049735, -0.076912, 0.021305, 0.055153, 0.297569, 0.315639, 0.354289, 0.047811, 0.000393, 0.025074, -0.050158, 0.001766, 0.001277, -0.005867, 0.03512, -0.034097, -0.066575, -0.112379, -0.107018, -0.045297, 0.086455, 0.082334, -0.017437, -0.055329, -0.030058, -0.035926, -0.037045, -0.032841, -0.115223, -0.167666, -0.076495, 0.080854, 0.237268, 0.284297, 0.301775, 0.020761, 0.000393, 0.002659, -0.105787, -0.043285, -0.02002, 0.024392, 0.011992, -0.059939, -0.131458, -0.127993, -0.031964, 0.078373, 0.212527, 0.148632, 0.00889, 0.018196, 0.011084, -0.004337, -0.019607, -0.016201, -0.055447, -0.098193, -0.064674, 0.02515, 0.152533, 0.164049, 0.134026, -0.03712, 0.027323, 0.009142, -0.09109, 0.012438, -0.057602, 0.007938, -0.034686, -0.096336, -0.049077, -0.033313, 0.010883, 0.116479, 0.175074, 0.097172, 0.021583, 0.025513, 0.050036, 0.042162, 0.013177, 0.005167, -0.080004, -0.050563, -0.115755, -0.035417, -0.059581, 0.018142, 0.013528, -0.004532, 0.030335, 0.069488, -0.010778, 0.012153, -0.058744, -0.052047, -0.105746, -0.123807, -0.0121, 0.01774, 0.039078, 0.105345, 0.164165, 0.069563, 0.034643, 0.049675, 0.017944, 0.018837, -0.039099, -0.041551, -0.057235, -0.046006, -0.157195, -0.121308, -0.074887, -0.051307, -0.077428, -0.02843, 0.016919, 0.055431, 0.149468, 0.055436, -0.092634, -0.136918, -0.087139, -0.053062, 0.043955, 0.027138, -0.007098, 0.017714, 0.1062, 0.085718, 0.106679, 0.056177, 0.002381, -0.068292, -0.073763, -0.009903, -0.002985, -0.102772, -0.184243, -0.150362, -0.071983, -0.096557, -0.060546, 0.000814, -0.012823, 0.078515, 0.133926, 0.04063, -0.073378, -0.054011, -0.065765, -0.073577, -0.005083, 0.014541, -0.048937, -0.002019, 0.035163, 0.075966, 0.070662, 0.045145, -0.010836, -0.052456, -0.002314, 0.040977, 0.004219, -0.106418, -0.167696, -0.189341, -0.150697, -0.149278, -0.089396, -0.030078, 0.000393, 0.116628, 0.122142, 0.056204, 0.003977, 0.011308, -0.001244, -0.009245, -0.064828, -0.031149, -0.050492, -0.023168, -0.011072, 0.029798, 0.038296, 0.046145, 0.059325, 0.027747, 0.04983, 0.03528, -0.023028, -0.078056, -0.140192, -0.145952, -0.192667, -0.143361, -0.049145, -0.030988, -0.009789, 0.097611, 0.080022, 0.033287, -0.006205, 0.076369, 0.035384, 0.001611, 0.026312, 0.002855, -0.009746, 0.024369, 0.020112, 0.042771, 0.054395, 0.087807, 0.093071, 0.065954, 0.063552, 0.025658, -0.028249, -0.08023, -0.173178, -0.12384, -0.207947, -0.123445, -0.015028, 0.043277, 0.028828, 0.061482, 0.072594, 0.019394, 0.028393, 0.078203, -0.003785, -0.05768, 0.022606, -0.007854, -0.003536, 0.024273, -0.018171, -0.017715, 0.033477, 0.083889, 0.082714, 0.099629, 0.111556, 0.031451, -0.041981, -0.122862, -0.213613, -0.152669, -0.204056, -0.10044, -0.018821, 0.028443, 0.000393, 0.071497, 0.050409, 0.083114, 0.027802, 0.066015, -0.013772, -0.056409, -0.035442, -0.011909, -0.0004, -0.02072, -0.039908, -0.024859, -0.004116, 0.057808, 0.054133, 0.097755, 0.096942, -0.028788, -0.068507, -0.133815, -0.170071, -0.173682, -0.261471, -0.118776, 0.036255, 0.009892, 0.028539, 0.131382, 0.07523, 0.054635, -0.002291, 0.005399, 0.042776, 0.016485, -0.01958, -0.005629, 0.001366, 0.004315, -0.028813, -0.006668, -0.018791, 0.020689, 0.007714, 0.05302, -0.006978, -0.061879, -0.047694, -0.115108, -0.115182, -0.103977, -0.142025, -0.067801, 0.077057, -0.001337, 0.027785, 0.062747, 0.041102, 0.049162, 0.011783, -0.025494, 0.00826, 0.005993, -0.018331, -0.013668, 0.026863, 0.070912, -0.007776, -6.2e-005, -0.018639, 0.009933, -0.033475, 0.008427, -0.055362, 0.005494, -0.048545, -0.096909, -0.106333, -0.094688, -0.098811, -0.050831, 0.099927, -0.002542, 0.000393, -0.000345, 0.178609, 0.155427, 0.047328, -0.017171, 0.034888, 0.012559, 0.045482, 0.064733, 0.108498, 0.105432, 0.050102, 0.05255, 0.042276, 0.047607, -0.001053, -0.012628, -0.051739, 0.02526, -0.018998, -0.012258, -0.04764, -0.027698, 0.013046, 0.030422, 0.078052, -0.000345, -0.000345, -0.000345, 0.110195, 0.251023, 0.088168, 0.024032, 0.000817, 0.010506, 0.052869, 0.173884, 0.140225, 0.096374, 0.132659, 0.083821, 0.046805, -0.003163, -0.009581, -0.059973, 0.013112, 0.098063, 0.049766, 0.00457, 0.086085, 0.112855, 0.026516, 0.006074, -0.030864, 0.000393, 0.000393, 0.000393, 0.052483, 0.029369, -0.101408, -0.183285, -0.108822, -0.053822, -0.00131, 0.067138, 0.010097, -0.004095, -0.030107, -0.071177, -0.114281, -0.133334, -0.127054, -0.077037, 0.022536, 0.061857, 0.039967, 0.038085, 0.081394, 0.101887, 0.035632, -0.009339, -0.002769, -0.000345, 0.000393, 0.000393, -0.000345, -0.029366, -0.138544, -0.213644, -0.327322, -0.348422, -0.344665, -0.321689, -0.322443, -0.331577, -0.34824, -0.350643, -0.406817, -0.275796, -0.162473, -0.15185, -0.163033, -0.10227, -0.104938, -0.090107, -0.037996, -0.006725, 0.002817, -0.000345, 0.000393, 0.000393, 0.000393, 0.000393, 0.000393, -0.000345, -0.002456, -0.012862, -0.043336, -0.041972, -0.054246, -0.063448, -0.132698, -0.16646, -0.117104, -0.175386, -0.186579, -0.105724, -0.11411, -0.124309, -0.100417, -0.093456, -0.054477, -0.036824, -0.019838, -0.006668, 0.000393, 0.000393, 0.000393, -0.000345},
		{0.000599, 0.000599, 0.000599, 0.000599, 0.000599, 0.000599, -0.000682, 0.000599, -0.000682, 0.000599, -0.000682, -0.000682, 0.02832, 0.029024, 0.027744, 0.028271, 0.000599, -0.000682, -0.000682, 0.000599, 0.000599, -0.000682, 0.000599, 0.000599, 0.000599, 0.000599, -0.000682, 0.000599, 0.000599, 0.000599, -0.000682, -0.000682, -0.000682, 0.000599, 0.000599, 0.027139, 0.029034, 0.056742, 0.060976, 0.033544, 0.080908, 0.095709, 0.136589, 0.17685, 0.16467, 0.08517, 0.008881, 0.000599, 0.000599, 0.000599, 0.000599, -0.000682, 0.000599, -0.000682, 0.000599, 0.000599, 0.000599, -0.000682, 0.000599, 0.000599, -0.02128, 0.012985, 0.0679, 0.099381, 0.045393, -0.014787, 0.030715, 0.081224, 0.148647, 0.158138, 0.291984, 0.347476, 0.345489, 0.264072, 0.152451, 0.030422, -0.023321, -0.074699, -0.072194, -0.003508, 0.015806, 0.006922, 0.000599, 0.000599, 0.000599, -0.000682, 0.027155, -0.000682, 0.011428, 0.012793, 0.068075, 0.037071, -0.00476, 0.021369, 0.129346, 0.111191, 0.198556, 0.116091, 0.040494, 0.054302, 0.088982, 0.038246, -0.026526, 0.022293, 0.025935, -0.05476, -0.090744, -0.080955, -0.053541, -0.030296, -0.010167, 0.000599, -0.000682, 0.000599, -0.00347, -0.036624, 0.074027, 0.039466, 0.027168, -0.035075, -0.055671, 0.013804, 0.04065, 0.020868, -0.003873, -0.051372, -0.007226, 0.042267, 0.053938, 0.036392, 0.001388, -0.018347, 0.020312, 0.019452, 0.008949, 0.056431, 0.008017, -0.072324, -0.0576, -0.033708, -0.000682, 0.000599, 0.057173, 0.079151, -9.4e-005, 0.013139, -0.005999, -0.020489, -0.048167, -0.036926, -0.046415, -0.038398, -0.117786, -0.107593, 0.000251, 0.026124, 0.023141, -0.011524, -0.033645, -0.023302, 0.000573, 0.033779, 0.007835, 0.051522, 0.033672, -0.108388, -0.095762, -0.015217, 0.000599, -0.000682, 0.062689, 0.062289, 0.028454, -0.119249, -0.02803, 0.001334, -0.002799, 0.004393, 0.0197, 0.005711, -0.037762, -0.031881, 0.040975, 0.060313, 0.08734, 0.062719, 0.001039, 0.001125, 0.027984, 0.049341, 0.031397, 0.058574, 0.059534, -0.096328, -0.062925, -0.035272, 0.000599, 0.008805, 0.029475, -0.012574, 0.00834, -0.092148, -0.106493, -0.082207, -0.063585, -0.005649, 0.047477, 0.05158, -0.016144, -0.045225, 0.037888, 0.048603, 0.094864, 0.066202, 0.002115, 0.005881, 0.015419, 0.051264, 0.141088, 0.043914, -0.063306, -0.106754, 0.038098, -0.018743, 0.000599, 0.008805, 0.036662, 0.012725, 0.026642, -0.101255, -0.078925, -0.07694, -0.003361, 0.058499, 0.074349, 0.043883, -0.091514, -0.091803, 0.006742, 0.077016, 0.045577, 0.048304, -0.008169, -0.014991, 0.013562, 0.022323, 0.088727, 0.017334, -0.110328, -0.148752, -0.033612, 0.005087, -0.000682, 0.043223, 0.0491, 0.043214, 0.024, 0.039389, -0.038688, -0.022609, 0.008559, 0.079044, 0.087655, 3.6e-005, -0.147729, -0.199656, -0.0701, 0.062761, 0.09471, 0.070581, 0.032079, -0.011302, -0.015357, -0.003144, 0.016814, -0.024728, -0.033719, -0.020957, 0.047128, 0.025028, -0.000682, 0.042628, 0.045273, 0.019345, 0.039642, -0.006878, -0.04556, 0.016888, -0.002158, 0.057528, 0.047727, -0.11727, -0.182085, -0.20798, -0.041127, 0.118007, 0.146116, 0.068007, -0.01911, 0.009729, 0.001857, 0.034728, 0.029289, 0.050484, 0.120486, 0.13688, 0.112174, 0.044006, -0.000682, 0.033888, 0.049364, 0.00254, -0.013659, -0.038263, -0.127697, -0.123881, -0.080049, -0.033539, -0.09387, -0.161613, -0.159243, -0.140242, 0.000641, 0.122306, 0.086426, -0.011447, -0.07132, -0.043745, -0.016686, 0.08307, 0.091237, 0.135137, 0.189253, 0.254183, 0.082178, 0.011422, -0.000682, -0.000682, 0.032277, -0.030514, -0.005738, -0.063755, -0.17148, -0.165452, -0.134168, -0.108156, -0.157691, -0.15584, -0.114724, -0.117055, 0.00122, 0.034592, 0.002755, -0.068941, -0.090423, -0.101963, -0.023049, 0.015372, 0.001191, -0.035438, -0.079975, 0.009343, 0.017386, 0.006923, 0.028997, 0.000599, 0.032285, -0.032717, -0.031624, -0.172481, -0.269352, -0.207056, -0.182608, -0.14828, -0.112363, -0.105141, -0.06839, -0.059891, -0.017349, -0.046611, 0.002508, -0.0176, -0.094085, -0.120337, -0.09456, -0.06484, -0.124437, -0.183445, -0.239986, -0.155628, 0.0285, 0.025896, -0.000682, -0.000682, 0.027778, -0.003067, -0.052727, -0.09287, -0.187895, -0.153799, -0.115856, -0.067538, -0.080742, -0.060087, -0.057846, -0.103482, -0.050362, -0.044487, 0.009374, -0.007551, -0.024747, -0.102258, -0.115874, -0.113242, -0.101784, -0.161117, -0.208375, -0.158496, 0.062941, 0.035145, 0.000599, 0.000599, 0.003605, -0.091596, -0.024331, 0.05611, -0.063435, -0.051849, 0.004553, -0.010186, -0.032515, -0.029066, -0.05213, -0.06832, -0.029389, -0.004859, 0.013922, -0.01572, -0.12968, -0.23985, -0.226738, -0.153031, -0.151338, -0.125142, -0.186505, -0.109176, 0.097335, 0.0441, 0.000599, 0.030177, 0.03014, -0.117225, -0.010519, 0.105463, 0.107631, 0.021488, -0.008247, -0.013288, 0.010404, 0.000203, -0.01313, 0.034589, 0.022233, 0.00739, 0.012369, -0.131708, -0.299219, -0.331838, -0.316285, -0.158028, -0.14023, -0.093534, -0.160613, -0.072046, 0.094522, 0.039708, -0.000682, 0.030871, 0.025142, -0.061585, 0.063642, 0.099466, 0.118058, 0.068136, 0.013397, 0.082527, 0.099978, 0.039918, 0.068683, 0.102756, 0.018824, -0.060129, -0.100077, -0.222318, -0.284238, -0.218972, -0.150817, -0.060094, -0.032602, 0.004182, -0.012797, 0.053499, 0.101098, 0.068208, 0.028001, 0.059606, 0.036121, 0.029045, 0.062041, 0.092668, 0.104308, 0.091318, 0.102714, 0.148998, 0.093615, 0.094639, 0.144145, 0.112581, -0.049738, -0.171932, -0.227472, -0.251247, -0.15838, -0.068758, 0.013274, 0.061481, 0.054777, 0.06251, 0.065185, 0.144674, 0.21993, 0.084129, 0.027361, 0.021435, 0.075728, 0.062632, 0.036799, 0.031218, 0.05728, 0.072706, 0.118615, 0.158597, 0.096595, 0.179229, 0.186061, 0.128412, -0.128858, -0.250214, -0.208826, -0.12676, -0.030659, 0.066102, 0.129694, 0.11437, 0.126012, 0.086321, 0.067666, 0.250602, 0.257544, 0.059508, -0.000682, -0.006286, 0.068081, 0.088025, 0.06601, 0.046339, 0.060782, 0.076481, 0.113141, 0.100459, 0.102664, 0.132455, 0.123205, 0.042809, -0.115393, -0.152352, -0.022401, 0.071719, 0.105142, 0.115572, 0.136918, 0.153245, 0.159876, 0.15253, 0.205329, 0.30046, 0.198047, 0.000599, 0.027747, 0.01061, 0.094715, 0.184525, 0.049797, 0.071863, -0.018367, -0.020174, 0.029201, 0.0584, 0.054954, 0.034922, 0.058349, -0.013532, -0.019871, -0.028874, 0.025518, 0.099308, 0.142918, 0.165991, 0.127536, 0.15105, 0.138721, 0.162341, 0.238771, 0.230305, 0.174996, -0.000682, 0.029027, 0.012347, 0.091141, 0.229692, 0.153105, 0.121502, -0.01464, -0.089647, -0.016612, 0.030936, -0.021254, -0.052166, -0.039613, -0.032753, 0.015441, -0.010164, -0.0165, 0.037832, 0.090626, 0.097682, 0.086162, 0.172349, 0.202471, 0.156128, 0.181819, 0.201736, 0.075481, 0.000599, -0.000682, 0.000599, 0.058266, 0.058645, 0.065397, 0.079405, 0.014211, -0.051735, -0.022598, 0.027533, -0.017697, 0.014713, 0.053397, 0.075965, 0.049153, -0.048725, -0.06478, -0.086666, -0.009397, 0.045596, 0.071185, 0.085499, 0.130248, 0.060323, 0.065115, 0.100763, 0.079807, 0.000599, 0.000599, 0.000599, -0.000682, 0.003639, 0.04709, 0.047962, 0.014063, -0.035693, -0.10153, -0.070144, -0.081505, -0.035781, 0.003307, 0.049528, 0.023714, -0.076732, -0.148342, -0.126552, -0.054925, 0.015375, 0.009951, 0.073708, 0.019922, 0.091762, 0.048338, 0.047377, 0.018292, -0.000682, -0.000682, -0.000682, 0.000599, 0.13462, 0.134617, 0.059067, 0.069846, 0.008764, 0.045831, 0.022334, -0.01771, 0.044929, -0.003954, 0.027272, 0.016248, 0.01186, -0.076458, -0.067505, -0.095684, -0.122792, -0.134766, -0.036698, -0.050165, -0.089293, -0.030793, 0.019572, 0.018292, 0.000599, -0.000682, -0.000682, 0.000599, -0.005726, 0.103142, 0.190011, 0.147782, 0.243026, 0.136428, 0.096093, 0.010444, 0.058472, 0.110916, 0.088795, 0.052271, -0.009293, -0.054768, -0.053685, -0.05822, -0.039983, -0.065728, -0.039557, -0.041347, -0.005725, 0.000599, 0.025407, -0.000682, -0.000682, -0.000682, -0.000682, -0.000682, 0.000599, 0.027731, 0.029045, 0.074235, 0.124994, 0.109731, 0.113646, 0.131209, 0.197742, 0.183967, 0.111084, 0.070333, 0.027403, -0.000682, -0.010169, -0.010169, -0.010169, -0.013331, -0.016493, -0.002563, 0.000599, -0.000682, -0.000682, -0.000682, 0.000599},
		{0.000518, 0.000518, 0.000518, 0.000518, 0.000518, 0.000518, -0.00059, 0.000518, -0.00059, 0.000518, -0.00059, -0.00059, -0.015609, -0.015326, 0.002572, 0.003668, 0.000518, -0.00059, -0.00059, 0.000518, 0.000518, -0.00059, 0.000518, 0.000518, 0.000518, 0.000518, -0.00059, 0.000518, 0.000518, 0.000518, -0.00059, -0.00059, -0.00059, 0.000518, -0.051396, -0.066567, -0.078961, -0.060784, -0.129022, -0.160003, -0.161659, -0.099727, -0.063623, -0.044867, -0.026633, 0.014103, -0.003876, -0.032321, -0.03376, -0.032242, 0.000518, -0.00059, 0.000518, -0.00059, 0.000518, 0.000518, 0.000518, -0.00059, 0.000518, 0.000518, -0.049956, -0.049591, -0.015731, -0.060386, 0.022127, 0.067563, 0.007592, -0.046936, -0.033574, -0.06366, -0.084479, -0.053878, -0.041636, 0.039318, 0.072655, 0.04305, -0.005972, -0.040256, -0.01978, 0.011981, 0.003169, 0.00137, 0.000518, 0.000518, 0.000518, -0.00059, 0.020079, -0.00059, -0.016655, 0.009865, 0.095551, 0.13776, 0.212646, 0.305746, 0.231536, 0.174469, 0.167268, 0.0692, 0.041286, 0.089593, 0.045042, 0.017551, 0.006998, -0.052641, 0.032403, 0.040396, 0.002069, -0.050885, 0.067893, -0.059676, -0.003752, 0.000518, -0.00059, -0.00116, -0.020809, 0.014037, 0.057441, 0.166089, 0.192786, 0.20496, 0.10461, 0.167329, 0.132149, 0.138699, 0.051954, -0.007237, 0.007082, 0.009157, 0.039375, 0.042723, 0.10728, 0.07594, 0.04912, 0.078728, 0.101327, 0.093384, 0.15218, 0.160823, 0.122921, 0.000518, -0.00059, 0.000518, 0.009603, -0.005063, 0.110217, 0.09907, -0.006909, 0.004948, 0.045446, 0.06268, 0.100951, 0.129938, 0.100864, 0.056975, -0.003598, 0.018728, 0.063511, 0.059253, 0.136017, 0.104645, 0.100253, 0.127985, 0.128159, 0.146892, 0.179831, 0.170512, 0.167517, 0.011479, 0.000518, -0.004511, 0.053602, 0.030896, -0.007057, -0.009261, -0.023928, -0.054953, 0.090446, 0.088679, 0.110089, 0.170384, 0.180969, 0.204987, 0.185005, 0.170567, 0.188607, 0.130064, 0.125479, 0.085775, 0.072729, 0.025147, 0.073025, 0.09405, 0.129411, 0.11685, 0.136428, 0.014689, -0.002626, -0.031895, 0.00633, -0.035001, -0.099958, -0.051427, -0.034244, -0.029387, 0.099909, 0.061583, 0.084653, 0.109209, 0.123822, 0.175302, 0.206362, 0.123647, 0.146283, 0.060458, 0.007187, 0.036144, 0.019953, 0.026685, 0.034484, -0.018909, -0.01818, 0.102348, 0.092487, 0.005194, -0.003045, -0.064547, -0.026676, 0.005965, -0.06303, 0.023245, -0.027358, -0.024968, 0.041628, 0.032404, 0.027633, 0.016648, -0.019076, -0.030442, 0.025623, -0.057345, -0.059428, -0.098576, -0.069734, -0.078484, -0.115557, -0.076359, -0.062843, -0.100909, -0.129889, -0.01774, 0.023076, 0.010287, -0.013017, -0.080859, 0.01773, 0.013083, -0.037337, 0.032905, -0.02219, -0.039562, 0.00749, -0.007645, -0.080566, -0.083441, -0.126211, -0.224497, -0.224474, -0.185959, -0.148515, -0.149491, -0.10643, -0.186055, -0.168868, -0.149865, -0.127269, -0.102347, -0.237572, -0.101916, 0.061349, 0.005351, -0.013561, -0.073764, -0.004658, 0.044226, -0.011619, 0.058008, 0.02766, -0.021772, 0.009545, -0.115533, -0.138276, -0.117441, -0.190699, -0.250419, -0.225347, -0.189604, -0.082885, -0.016983, -0.046731, -0.119637, -0.16904, -0.192619, -0.182405, -0.160218, -0.23844, -0.084968, 0.009427, 0.002572, -0.022565, -0.082672, -0.14227, 0.016461, -0.026655, 0.010658, -0.019581, -0.060486, -0.064601, -0.156664, -0.146494, -0.122952, -0.116202, -0.117825, -0.051528, -5.9e-005, 0.067203, 0.14304, 0.105757, 0.047098, -0.053345, -0.137591, -0.17418, -0.172944, -0.223634, -0.061028, -0.032077, -0.005596, -0.017601, -0.058587, -0.099658, 0.058301, -0.033992, -0.044872, -0.080605, -0.061242, -0.071183, -0.119044, -0.095701, -0.082561, -0.034973, -0.001035, 0.059933, 0.060236, 0.070152, 0.125317, 0.113967, 0.101428, 0.048647, -0.020701, -0.046184, -0.14232, -0.158703, -0.049821, -0.022248, -0.005746, -0.018362, -0.070168, -0.129549, 0.071546, -0.030239, -0.068496, -0.083547, -0.000296, -0.054557, -0.063878, -0.043464, -0.020107, -0.005181, 0.082734, 0.090563, 0.01429, 0.045808, 0.07025, 0.051752, 0.058629, 0.042008, 0.004591, -0.016187, -0.080142, -0.089428, -0.03062, 0.099618, 0.031162, 0.029467, -0.012375, -0.12333, 0.092329, -0.038376, -0.082183, 0.030687, -0.015622, -0.057091, -0.048505, -0.058607, -0.068271, -0.046643, 0.002731, 0.02261, -0.003968, 0.028756, 0.005936, 0.008503, 0.01188, 0.028499, 0.005505, -0.051361, -0.049709, -0.028987, -0.047921, 0.14017, 0.046531, 0.029923, -0.009195, -0.052448, 0.20057, -0.03823, -0.025978, -0.015658, -0.092626, -0.094407, -0.034015, -0.053031, -0.048558, -0.018299, -0.021331, -0.043493, -0.022483, 0.042373, -0.005367, -0.004485, -0.000765, 0.009803, -0.007406, -0.080504, -0.031008, 0.044324, -0.046722, 0.166112, 0.045729, 0.000518, 0.00246, -0.009532, 0.282082, 0.065061, -0.066334, -0.095427, -0.165683, -0.138948, -0.083524, -0.054817, -0.089598, -0.035903, -0.029015, -0.018668, -0.009444, 0.036203, 0.02752, 0.031868, -0.003966, -0.036756, -0.028991, -0.036636, -0.052747, 0.055924, -0.001005, 0.203602, 0.063056, -0.00059, 0.019056, 0.021072, 0.320174, 0.144472, -0.018595, -0.053339, -0.052309, -0.050291, -0.076794, -0.082734, -0.130625, -0.124078, -0.058359, -0.00519, 0.007067, 0.017968, 0.044902, 0.043737, -0.020587, -0.103349, -0.064554, -0.09932, -0.075206, 0.013464, 0.048081, 0.062992, 0.096772, 0.018016, 0.019826, -0.000889, 0.382597, 0.178921, 0.019501, 0.027957, -0.003102, -0.011209, -0.063728, -0.103994, -0.138788, -0.168909, -0.099722, 0.025604, 0.040987, 0.076336, 0.029548, -0.010969, 0.012861, -0.022425, -0.011059, -0.078552, -0.023887, 0.0555, 0.044059, 0.126065, 0.066044, -0.006829, -0.042543, 0.163878, 0.305355, 0.173197, 0.086872, 0.068097, 0.021188, 0.009422, -0.012426, -0.023968, 0.008251, -0.015657, 0.028193, 0.060937, 0.054321, 0.045566, 0.046969, 0.017284, 0.030876, 0.029919, -0.001314, -0.051913, -0.089506, 0.032206, 0.062773, 0.31046, 0.037695, -0.00059, -0.015001, 0.190614, 0.235124, 0.152823, 0.154529, 0.098779, 0.04614, 0.057346, 0.039178, 0.043459, 0.094179, 0.05501, 0.036459, 0.044521, 0.042697, 0.072355, 0.015171, 0.007393, 0.000695, 0.042149, -0.023949, -0.024286, 0.001518, 0.072624, 0.046426, 0.172082, 0.027245, -0.022658, 0.003351, 0.166788, 0.173547, 0.142915, 0.118579, 0.059132, 0.095724, 0.071923, 0.051656, 0.106038, 0.10728, 0.104982, 0.052288, 0.040138, 0.036037, 0.049733, -0.012622, 0.020209, 0.006548, 0.020241, 0.004941, -0.002382, 0.126807, 0.118623, -0.001698, 0.142636, -0.00059, -0.021548, -0.014394, 0.170503, 0.208614, 0.142028, 0.02437, 0.052731, 0.057754, 0.053311, 0.015068, 0.029658, 0.021535, 0.013949, -0.031676, -0.026132, -0.011827, 0.008985, -0.01132, 0.037582, 0.039821, 0.059273, 0.007011, 0.045737, 0.192417, 0.075066, 0.029019, 0.079215, 0.000518, -0.00059, 0.000518, 0.134719, 0.229475, 0.154023, 0.099492, 0.012813, 0.020483, 0.045851, 0.019022, 0.003025, -0.034674, -0.078867, -0.078988, -0.046742, -0.02365, -0.009856, -0.020463, -0.004158, 0.03333, 0.078953, 0.098572, 0.132591, 0.220998, 0.116388, 0.066457, 0.020584, 0.000518, 0.000518, 0.000518, -0.007086, 0.113021, 0.066544, 0.089314, 0.086991, 0.069006, 0.055039, 0.00032, 0.03993, -0.006415, -0.020026, -0.025996, -0.044676, 0.007117, 0.023178, 0.052907, 0.015644, 0.036136, 0.167215, 0.177741, 0.229228, 0.24133, 0.211644, 0.089931, 0.008894, -0.00059, -0.00059, -0.00059, 0.034079, -0.045983, -0.072659, 0.003373, 0.141964, 0.18562, 0.145901, 0.186359, 0.225925, 0.151535, 0.170686, 0.17679, 0.130296, 0.138211, 0.167957, 0.151355, 0.107203, 0.129844, 0.139877, 0.180649, 0.205147, 0.165954, 0.129616, 0.041536, 0.008894, 0.000518, -0.00059, -0.00059, 0.000518, 0.000518, -0.031246, -0.066352, -0.117693, -0.091211, -0.029181, -0.017038, -0.082102, -0.091701, 0.008982, 0.038064, 0.148922, 0.067865, 0.017993, 0.104469, 0.085469, 0.118204, 0.218471, 0.198506, 0.125994, 0.092439, 0.000518, 0.000518, -0.00059, -0.00059, -0.00059, -0.00059, -0.00059, 0.000518, -0.00059, 0.000518, -0.00059, -0.00059, -0.01924, -0.037589, -0.0442, -0.064471, -0.123018, -0.137036, -0.109484, -0.1329, -0.125199, -0.122935, -0.109478, -0.075312, -0.043395, -0.001399, -0.002011, 0.000518, -0.00059, -0.00059, -0.00059, 0.000518},
		{0.000516, 0.000516, 0.000516, 0.000516, 0.000516, 0.000516, -0.000587, 0.000516, -0.000587, 0.000516, -0.000587, -0.000587, -0.023594, -0.024271, -0.000587, 0.000516, 0.000516, -0.000587, -0.000587, 0.000516, 0.000516, -0.000587, 0.000516, 0.000516, 0.000516, 0.000516, -0.000587, 0.000516, 0.000516, 0.000516, -0.000587, -0.000587, -0.000587, -0.026221, -0.102283, -0.130589, -0.121197, -0.088423, -0.084123, -0.115302, -0.123949, -0.119487, -0.099238, -0.075921, -0.060564, -0.038471, -0.033289, -0.076024, -0.078271, -0.06809, -0.018457, -0.016399, 0.000516, -0.000587, 0.000516, 0.000516, 0.000516, -0.000587, -0.015227, 0.000516, -0.030644, -0.038392, -0.148348, -0.240696, -0.310002, -0.345601, -0.317067, -0.402541, -0.350756, -0.376745, -0.346476, -0.232649, -0.201742, -0.201363, -0.141763, -0.079447, -0.067629, -0.137963, -0.118976, -0.092155, -0.049042, -0.002646, 0.000516, 0.000516, 0.000516, -0.000587, -0.016394, -0.02383, -0.018313, -0.04582, -0.104212, -0.139776, -0.080292, -0.057474, -0.040361, -0.068774, -0.091875, -0.222211, -0.21121, -0.065274, -0.028393, -0.102671, -0.018404, 0.05815, 0.101106, 0.078701, -0.021491, -0.133811, -0.055053, -0.076304, -0.001747, 0.000516, -0.000587, 0.028792, 0.040442, 0.082531, 0.05081, 0.044336, 0.043203, 0.053145, -0.011272, 0.006736, 0.02504, 0.06456, 0.051337, -0.023637, 0.000885, 0.049667, 0.106374, 0.117459, 0.107057, 0.056065, 0.033823, 0.009238, -0.060401, -0.127302, 0.012003, 0.046097, 0.031411, -0.012425, -0.000587, 0.000516, 0.027454, 0.118833, 0.052967, 0.108354, 0.025469, 0.0643, 0.043329, 0.041118, 0.01539, -0.020795, -0.067275, -0.138178, -0.119126, -0.070273, 0.03602, 0.111797, 0.065765, -0.007479, 0.005197, -0.0198, -0.054828, -0.064487, 0.017388, 0.067541, 0.128527, 0.006585, 0.000516, 0.019302, 0.006034, 0.122727, 0.096841, 0.164477, 0.042115, 0.060384, 0.080557, 0.083826, 0.033671, -0.010237, -0.02748, -0.099559, -0.125583, -0.143049, -0.087202, -0.020168, -0.005857, 0.034258, 0.004599, -0.074051, -0.033213, 0.082323, 0.099556, 0.129381, 0.24666, 0.093803, -0.000938, 0.068994, 0.036933, 0.132135, 0.044199, 0.06668, 0.048604, 0.083701, 0.137688, 0.119789, 0.041502, 0.007389, -0.052493, -0.094311, -0.124282, -0.084721, -0.032194, 0.043089, 0.076087, 0.032414, 0.055669, -0.006812, -0.03788, 0.077454, 0.126589, 0.194243, 0.301467, 0.116022, -0.002632, 0.047939, 0.051072, 0.202614, 0.091201, 0.114853, 0.081775, 0.105732, 0.131558, 0.118827, 0.016279, -0.001079, -0.06177, -0.135471, -0.121823, -0.035826, 0.001962, -0.009056, 0.062716, 0.023601, 0.044514, -0.006853, -0.010019, 0.107385, 0.207509, 0.290682, 0.276081, 0.083555, 0.005537, 0.040652, 0.090239, 0.189363, -0.00511, 0.046082, 0.082713, 0.096853, 0.121447, 0.065912, -0.039646, 0.00041, -0.042016, -0.11401, -0.095158, -0.023068, 0.058301, 0.023434, 0.041369, 0.024616, 0.026499, 0.066618, 0.018479, 0.080429, 0.147665, 0.402738, 0.287035, 0.115504, 0.009936, 0.057987, 0.081051, 0.156765, 0.1, -0.002687, 0.039241, 0.086741, 0.129853, 0.071079, 0.014136, 0.026039, 0.047997, 0.009994, -0.025162, 0.055181, 0.071079, 0.006163, 0.00492, -0.009974, -0.025226, -0.042445, -0.07777, -0.129804, 0.020649, 0.24127, 0.270211, 0.095389, 0.024418, 0.139768, 0.147125, 0.235634, 0.110142, 0.002503, 0.047654, 0.071033, 0.120263, 0.093207, 0.049631, 0.071339, 0.124864, 0.109319, 0.07706, 0.107748, 0.029512, -0.014544, -0.027117, -0.069006, -0.132398, -0.190112, -0.219326, -0.20998, -0.218322, 0.044325, 0.101851, 0.014715, 0.024268, 0.225524, 0.204446, 0.113526, 0.032129, 0.062499, 0.037317, 0.114017, 0.128073, 0.068785, 0.075732, 0.098412, 0.151991, 0.1154, 0.071343, 0.094674, 0.034127, -0.057526, -0.05496, -0.026987, -0.087807, -0.111083, -0.141029, -0.203815, -0.262356, -0.099357, -0.046805, -0.061806, 0.000488, 0.187955, 0.184765, 0.062514, -0.066139, 0.10744, 0.045156, 0.064014, 0.095506, 0.091037, 0.075572, 0.094127, 0.09954, 0.099126, 0.052473, 0.046219, 0.01156, -0.039958, 0.027009, 0.011017, -0.028677, 0.00185, -0.079255, -0.085149, -0.159045, -0.17444, -0.145699, -0.05297, 0.029714, 0.118063, 0.172653, 0.079652, -0.03214, 0.073902, 0.017982, 0.004685, 0.068553, 0.08269, 0.079216, 0.097229, 0.10864, 0.038178, 0.052671, 0.043057, 0.016921, 0.040331, 0.029471, -0.016114, -0.034049, 0.029338, 0.032655, 0.076087, -0.014734, -0.146634, -0.128655, -0.062274, 0.041131, 0.048002, 0.234516, 0.064824, -0.066165, -0.07349, -0.018748, -0.042664, -0.002021, 0.047656, 0.036036, 0.065885, 0.090834, 0.077193, 0.073825, 0.041987, 0.024662, 0.047884, 0.027731, -0.003506, 0.026782, 0.090797, 0.118507, 0.144324, 0.016423, -0.124378, -0.131781, -0.061631, 0.015169, 0.032183, 0.12289, 0.005203, -0.114519, -0.079204, -0.022023, -0.024575, -0.016362, -0.01558, -0.094204, -0.065093, 0.032191, 0.109448, 0.030958, 0.022818, 0.012705, 0.066134, 0.088851, 0.075229, 0.091281, 0.134226, 0.074989, 0.062098, 0.028559, -0.222117, -0.183862, -0.078888, -0.000587, 0.050612, 0.101832, 0.018102, -0.061069, -0.04948, -0.015657, -0.000421, -0.05008, -0.077495, -0.169522, -0.175481, -0.102734, -0.017146, -0.06506, -0.052416, 0.026705, 0.085213, 0.127068, 0.079076, 0.083497, 0.117118, 0.031083, 0.062142, 0.005592, -0.181524, -0.069347, -0.059762, -0.023717, 0.057591, 0.119157, 0.019268, -0.032434, 0.020485, -0.013814, -0.026286, 0.00139, -0.073131, -0.184776, -0.186931, -0.108544, -0.082625, -0.153083, -0.139141, 0.002212, 0.049308, 0.032949, 0.061242, 0.076089, 0.094312, -0.02321, -0.011408, -0.098572, -0.229283, -0.00064, -0.003922, -0.000587, 0.060741, 0.123451, -0.018228, -0.059233, -0.020356, -0.059111, -0.06255, 0.017185, -0.028357, -0.143926, -0.159329, -0.13365, -0.162122, -0.193737, -0.163484, -0.052387, 0.036641, 0.052445, 0.088214, 0.060687, 0.030905, -0.081065, -0.096133, -0.155613, -0.227033, -0.099462, -0.006898, -0.000587, 0.091611, 0.107557, 0.001051, -0.082583, -0.073171, -0.135384, -0.14583, -0.023685, -0.04362, -0.140645, -0.163501, -0.17314, -0.132143, -0.126433, -0.038618, 0.032154, 0.075254, 0.09655, 0.074224, 0.092569, 0.045125, 0.015441, -0.062974, -0.115169, -0.278553, -0.024352, 0.01893, -0.000587, 0.104824, 0.156511, 0.042136, -0.055892, -0.120296, -0.135281, -0.129086, -0.071241, -0.103317, -0.128543, -0.147248, -0.12683, -0.076318, -0.042408, 0.05853, 0.078821, 0.129785, 0.094653, 0.070468, 0.09932, 0.070383, 0.029018, -0.084757, -0.184257, -0.187224, -0.018996, -0.00879, 0.000516, 0.038356, 0.163601, 0.093287, 0.029619, -0.123156, -0.123027, -0.155787, -0.097506, -0.100976, -0.104201, -0.086278, -0.075877, -0.079159, -0.024106, 0.070831, 0.078774, 0.098023, 0.078829, 0.106343, 0.068438, 0.013244, -0.015354, -0.101358, -0.123104, -0.113898, 0.03187, -0.009129, -0.000587, 0.000516, 0.208881, 0.25198, 0.179611, 0.017503, -0.011668, -0.050188, -0.026317, 0.034141, 0.020949, 0.008189, -0.032826, 0.004706, 0.026648, 0.074653, 0.074778, 0.047689, 0.053893, 0.096026, 0.014682, -0.022871, -0.085527, -0.147028, -0.086098, -0.061094, 0.050729, 0.000516, 0.000516, 0.000516, 0.069039, 0.269523, 0.199694, 0.126474, 0.149742, 0.108566, 0.13423, 0.141598, 0.123706, 0.11863, 0.086064, 0.11915, 0.101631, 0.078686, 0.132343, 0.021153, 0.009579, 0.053823, 0.060353, -0.037012, -0.029727, -0.099659, -0.094843, -0.065029, -0.011342, -0.000587, -0.000587, -0.000587, 0.029575, 0.118297, 0.133234, 0.101648, 0.105113, 0.13416, 0.09954, 0.130637, 0.121516, 0.180851, 0.192695, 0.201809, 0.136577, 0.098169, 0.092371, 0.065191, 0.147268, 0.114783, 0.018033, -0.017793, 0.020398, 0.071331, 0.051706, -0.031105, -0.000587, 0.000516, -0.000587, -0.000587, 0.000516, -0.000109, -0.005969, -0.025013, -0.029435, -0.013905, -0.004209, -0.055011, 0.052922, 0.084604, 0.063465, -0.008621, -0.141426, -0.021897, 0.056956, -0.010601, -0.010106, -0.010655, -0.089219, -0.030301, 0.045651, 0.015806, 0.010003, 0.000759, -0.000587, -0.000587, -0.000587, -0.000587, -0.000587, 0.000516, 0.002866, 0.037475, 0.063361, 0.090483, 0.09915, 0.133245, 0.056931, -0.052085, 0.012628, 0.061208, -0.050685, 0.001264, 0.070682, 0.094764, 0.006815, -0.005879, 0.000692, 0.019161, 0.060821, 0.057415, -0.000587, -0.000587, -0.000587, 0.000516},
		{-8.9e-005, -8.9e-005, -8.9e-005, -8.9e-005, -8.9e-005, -8.9e-005, 0.000101, -8.9e-005, 0.000101, -8.9e-005, 0.000101, 0.000101, 0.025013, 0.027745, 0.031639, 0.029774, -8.9e-005, 0.000101, 0.000101, -8.9e-005, -8.9e-005, 0.000101, -8.9e-005, -8.9e-005, -8.9e-005, -8.9e-005, 0.000101, -8.9e-005, -8.9e-005, -8.9e-005, 0.000101, 0.000101, 4.6e-005, -0.000179, -0.021457, -0.029402, -0.044824, -0.060893, -0.045417, -0.052735, -0.10052, -0.134267, -0.07995, 0.052734, 0.054977, -0.093486, -0.288916, -0.260179, -0.184172, -0.109257, -0.036616, 0.000101, -8.9e-005, 0.000101, -8.9e-005, -8.9e-005, -8.9e-005, 0.000101, -0.022317, 0.015721, -0.052948, -0.111463, -0.10703, -0.118395, -0.072071, -0.101587, -0.128521, -0.181438, -0.137514, -0.122865, -0.065271, -0.038723, 0.025484, 0.045122, -0.04589, -0.163773, -0.280629, -0.267412, -0.240515, -0.152291, -0.112594, -0.020526, -8.9e-005, -8.9e-005, -8.9e-005, 0.000101, -0.012374, -0.010491, -0.038861, -0.136259, -0.141054, -0.181215, -0.104574, 0.002719, -0.022344, -0.06933, -0.005896, 0.026458, -0.031726, 0.060443, 0.059522, 0.063574, 0.042232, -0.03568, -0.020792, -0.123196, -0.171691, -0.160276, -0.008432, -0.039889, -0.00079, -8.9e-005, 0.000101, -0.016416, 0.00822, -0.08091, -0.166177, -0.191941, -0.123094, -0.035443, 0.037137, 0.126131, 0.114154, 0.162919, 0.216806, 0.206088, 0.226718, 0.310371, 0.336532, 0.342538, 0.322986, 0.216875, 0.11095, 0.069375, -0.041616, -0.086302, 0.05983, 0.036369, 0.074868, -0.006859, 0.000101, -8.9e-005, -0.045733, -0.0035, -0.022951, -0.048007, 0.052079, 0.013289, 0.01159, 0.034245, 0.030439, 0.018075, 0.035148, 0.065668, 0.066308, 0.051735, 0.058336, 0.106358, 0.149176, 0.191099, 0.164274, 0.211239, 0.214933, 0.006194, -0.075578, 0.012657, 0.074001, -0.028808, -8.9e-005, 0.029591, 0.012208, -0.080865, 0.021052, 0.032923, 0.044915, 0.03857, -0.058299, -0.101347, -0.052177, -0.068685, -0.031413, -0.008705, 0.005073, -0.034246, -0.086273, -0.113563, -0.054352, 0.001765, 0.023247, 0.025121, 0.128999, 0.13885, 0.114305, 0.056846, 0.159977, 0.024461, -8.9e-005, 0.031783, -0.042975, -0.036514, -0.040421, 0.030082, 0.031553, 0.053531, -0.012715, -0.044056, -0.009416, 0.024709, 0.042197, 0.028673, 0.03712, 0.010365, -0.013858, -0.048484, -0.012892, -0.00077, -0.069344, -0.027032, 0.038438, 0.046975, 0.092687, 0.068599, 0.034995, 0.100028, -8.9e-005, -0.05813, -0.089938, -0.033722, -0.094677, 0.015204, 0.000738, -0.001526, -0.013568, -0.017962, 0.040613, 0.059772, 0.09929, 0.108137, 0.043673, 0.007972, 0.037773, 0.028416, -0.006641, 0.039448, -0.012254, -0.042103, 0.015406, 0.035373, 0.104658, 0.082486, 0.091985, 0.11342, -0.023624, -0.120572, -0.121693, -0.146302, -0.072258, 0.030986, 0.023191, 0.029741, 0.004635, 0.004471, 0.001593, 0.032269, 0.032077, 0.052962, -0.010201, 0.016138, 0.033562, -0.008707, -0.024653, -0.014615, -0.024, -0.03916, -0.039841, 0.014783, 0.124046, 0.106718, 0.209948, 0.081361, -0.028748, -0.134797, -0.062112, -0.099692, 0.010889, 0.059802, 0.072073, 0.030724, 0.037003, 0.014805, 0.016247, 0.008082, 0.025046, 0.030899, 0.05975, -0.018935, -0.041858, -0.041703, -0.015733, -0.024659, -0.036057, -0.036195, -0.002796, 0.044986, 0.179559, 0.140384, 0.206656, 0.017163, -0.056073, -0.151096, -0.156466, -0.04091, 0.034307, 0.041114, 0.033563, 0.00247, 0.039532, 0.001706, -0.035327, -0.040478, -0.016339, 0.118917, 0.08225, -0.055928, -0.136917, -0.102746, -0.05023, 0.003531, -0.056318, -0.05188, -0.001041, -0.012698, 0.204173, 0.242488, 0.218893, 0.001454, -0.036455, -0.072452, -0.194535, 0.022131, -0.064696, 0.022697, -0.005256, -0.006232, -0.036268, -0.046061, -0.13219, -0.078491, 0.093202, 0.158385, 0.024143, -0.115623, -0.16067, -0.053455, -0.096068, -0.010266, -0.030941, -0.016179, -0.071927, -0.058561, 0.193933, 0.223411, 0.190727, 0.037649, 0.027932, -0.052964, -0.113965, 0.082761, -0.086269, -0.019928, -0.022374, -0.033966, -0.039629, -0.024127, -0.092017, 0.0093, 0.124089, 0.116669, -0.061354, -0.129591, -0.138455, -0.046067, -0.065798, -0.045304, -0.075286, -0.116308, -0.089313, -0.034125, 0.100221, 0.220027, 0.18709, 0.073791, 0.030003, -0.052009, -0.125094, 0.00749, -0.04505, -0.029452, -0.078028, -0.098775, -0.05252, -0.061166, -0.02989, 0.012302, 0.070119, 0.071134, -0.041148, -0.107692, -0.108043, -0.033417, -0.059737, -0.119446, -0.130213, -0.155779, -0.181717, -0.107355, 0.071184, 0.113867, 0.232842, 0.08061, 0.000857, -0.034333, -0.107537, 0.017271, -0.03095, -0.014093, -0.13688, -0.060213, -0.070035, -0.052242, -0.047311, 0.005333, 0.086248, 0.047335, -0.011663, -0.086456, -0.042623, -0.037237, -0.047227, -0.098614, -0.113999, -0.146132, -0.173246, -0.059174, 0.159795, 0.099127, 0.17507, 0.062662, -0.028548, 0.004183, -0.077263, 0.065355, 0.007735, 0.011751, -0.091695, -0.133264, -0.116211, -0.009369, -0.019219, 0.019019, 0.04491, 0.018125, -0.031905, -0.06421, -0.025339, -0.010464, -0.064103, -0.043491, -0.091262, -0.055865, 0.008464, 0.094842, 0.227329, 0.189373, 0.164143, 0.081581, 0.000101, -0.019352, -0.114784, 0.094845, 0.104861, 0.069429, 0.007644, -0.103114, -0.12879, 0.012566, 0.019571, 0.030172, 0.028452, -0.021849, -0.096226, -0.084549, -0.016944, -0.037515, -0.074303, 0.021833, -0.011928, 0.012857, 0.047046, 0.111492, 0.132287, 0.069827, 0.042804, 0.15409, -0.013112, -0.057078, -0.144461, 0.096218, 0.126188, 0.10758, 0.047396, -0.010732, -0.04659, 0.015967, 0.015497, 0.012401, 0.029394, -0.015627, -0.085967, -0.030679, -0.018076, -0.00456, -0.013778, 0.02108, -0.014681, -0.001079, 0.097291, 0.178098, 0.177192, 0.054184, 0.042746, 0.090739, 0.006735, -0.00065, 0.001889, 0.138847, 0.100057, 0.130972, 0.106092, 0.091218, 0.101831, 0.07372, 0.07408, 0.050013, 0.053623, 0.045231, 0.013462, 0.048977, 0.026143, 0.074658, 0.133472, 0.055431, 0.049761, 0.149775, 0.262713, 0.305607, 0.244724, 0.132136, 0.183923, 0.051101, 0.000101, -0.002616, 0.09618, 0.165616, 0.175793, 0.174038, 0.198667, 0.228644, 0.198295, 0.119845, 0.16337, 0.147366, 0.113476, 0.097962, 0.046994, 0.083818, 0.052611, 0.090184, 0.194978, 0.126328, 0.182501, 0.223069, 0.250428, 0.209128, 0.086145, 0.049768, 0.104377, 0.002076, 0.026752, 0.009503, 0.067569, 0.193726, 0.225564, 0.207374, 0.278496, 0.222002, 0.13189, 0.094997, 0.116106, 0.119531, 0.101843, 0.123517, 0.127307, 0.089658, 0.031663, 0.113327, 0.15102, 0.137377, 0.189204, 0.167661, 0.197444, 0.160659, -0.002696, -0.013955, 0.076997, 0.008841, 0.026515, 0.019231, 0.049959, 0.213069, 0.096973, 0.160275, 0.114434, 0.080828, 0.053052, 0.057578, 0.038249, 0.122551, 0.074222, 0.112902, 0.088928, 0.061715, 0.046759, 0.114158, 0.133197, 0.14097, 0.179977, 0.11562, 0.133145, 0.058751, -0.011503, 0.054592, 0.045694, 0.010916, 0.000101, -8.9e-005, 0.085596, 0.131148, -0.037961, -0.014718, -0.013037, -0.034541, 0.065094, 0.085037, 0.085578, 0.100217, 0.039371, 0.093091, 0.068132, 0.095719, 0.099825, 0.104408, 0.129206, 0.118685, 0.11722, 0.11469, 0.088442, 0.016354, -0.025925, 0.115843, -0.031438, -8.9e-005, -8.9e-005, -8.9e-005, 0.033111, 0.005546, -0.186146, -0.184949, -0.179301, -0.172835, -0.098716, 0.01278, 0.001019, -0.014912, 0.026482, 0.046494, 0.080095, 0.057527, 0.056873, 0.005955, 0.058239, 0.063674, 0.009788, -0.018499, 0.038153, -0.012746, 0.024131, 0.081941, 0.010335, 0.000101, 0.000101, 0.000101, 0.005335, -0.049677, -0.168759, -0.199473, -0.124066, -0.078854, -0.084298, 0.006917, 0.053344, 0.049096, 0.016732, 0.022621, 0.051396, 0.035179, 0.005951, -0.013745, -0.062645, -0.105235, -0.139447, -0.121506, -0.077777, -0.05847, -0.006564, 0.014938, 0.031717, -8.9e-005, 0.000101, 0.000101, -8.9e-005, -0.000809, -0.065698, -0.122675, -0.193021, -0.242423, -0.144524, -0.228496, -0.084894, 0.003324, -0.017223, -0.020946, -0.067543, -0.11347, -0.008266, -0.012783, -0.160274, -0.112087, -0.121574, -0.136234, -0.07806, -0.036316, -8.9e-005, -8.9e-005, 0.000101, 0.000101, 0.000101, 0.000101, 0.000101, -8.9e-005, -0.001163, -0.00344, -0.030752, -0.038621, -0.07657, -0.177163, -0.243985, -0.343487, -0.362784, -0.363612, -0.359952, -0.321952, -0.344517, -0.352739, -0.225841, -0.154317, -0.073806, -0.074982, -0.036146, -0.022828, 0.000101, 0.000101, 0.000101, -8.9e-005},
		{0.000379, 0.000379, 0.000379, 0.000379, 0.000379, 0.000379, -0.000431, 0.000379, -0.000431, 0.000379, -0.000431, -0.000431, 0.000379, 0.000379, -0.000431, 0.000379, 0.000379, -0.000431, -0.000431, 0.000379, 0.000379, -0.000431, 0.000379, 0.000379, 0.000379, 0.000379, -0.000431, 0.000379, 0.000379, 0.000379, -0.000431, -0.000431, -0.000431, 0.000379, 0.000379, -0.000431, 0.000379, 0.000379, 0.000379, -0.000431, 0.000379, -0.000431, 0.000379, -0.000431, 0.000379, -0.000431, -0.000431, 0.000379, 0.000379, 0.000379, 0.000379, -0.000431, 0.000379, -0.000431, 0.000379, 0.000379, 0.000379, -0.000431, 0.000379, 0.000379, 0.000379, 0.000379, -0.000431, 0.000379, -0.000431, -0.000431, -0.000431, 0.003192, 0.003449, 0.00344, 0.002749, 0.00037, -0.000431, -0.000431, -0.000431, 0.000379, -0.000431, 0.000379, -0.000431, 0.000379, -0.000431, 0.000379, 0.000379, 0.000379, 0.000379, -0.000431, -0.000431, -0.000431, -0.000431, -0.000431, -0.000431, -0.000431, -0.000431, 0.000379, 0.000594, 0.003004, 0.002272, 0.003245, -0.002527, -0.002364, -0.002132, -0.001331, 0.001953, 0.001583, 0.000222, -0.000961, -0.001405, -0.000431, -0.000431, 0.000379, -0.000431, 0.000379, -0.000431, 0.000379, 0.000379, -0.000431, 0.000379, 0.000379, 0.000379, 0.000379, -0.00049, 0.00045, 0.001846, 0.002222, 0.003487, 0.003457, -0.000915, -0.002475, -0.003578, -0.002773, -0.002751, -0.003482, -0.002346, -0.000248, -0.000819, -0.000431, -0.000431, 0.000379, 0.000379, 0.000379, -0.000431, 0.000379, 0.000379, 0.000379, -0.000431, -0.000431, 0.000252, 0.000452, -0.000171, -0.00245, -0.001788, 0.002658, 0.003448, -0.003237, -0.002742, -0.00358, -0.003586, -0.002777, -0.002774, -0.003563, -0.003259, 0.000812, -0.000471, -0.000777, -0.000431, -0.000431, -0.000431, -0.000431, 0.000379, -0.000431, 0.000379, -0.000431, 0.000379, -0.000823, 0.001417, -0.00279, -0.003344, 4.8e-005, 0.003411, 0.002696, 0.003382, -0.00253, -0.003542, -0.002764, -0.002778, -0.002778, -0.002774, -0.003575, -0.003454, -0.000437, -0.001184, -0.001888, -0.000431, 0.000379, 0.000379, 0.000379, 0.000379, -0.000431, -0.000431, 5.4e-005, -0.001497, -0.002275, -0.000921, 0.000224, 0.00176, 0.001481, 0.003452, -0.002548, -0.002763, -0.002778, -0.00278, -0.002781, -0.00278, -0.002777, -0.002769, -0.002769, -0.002744, -0.003424, -0.002846, -0.001692, -0.000751, 8.6e-005, 0.000379, 0.000379, 0.000379, -0.000431, -0.000431, -0.000434, -0.001958, -0.0017, -0.000706, 0.002311, 0.002993, 0.003337, -0.00273, -0.002775, -0.003589, -0.003591, -0.003592, -0.002782, -0.003592, -0.00278, -0.002768, -0.002757, -0.002753, -0.003535, -0.002497, -0.001883, -0.002328, -0.00022, -0.000754, 0.000379, -0.000431, 0.000379, -0.000431, -6.4e-005, -0.001712, -0.0013, -0.001894, -0.000641, -0.001723, 0.00342, -0.003576, -0.003587, -0.003588, -0.00359, -0.003592, -0.003592, -0.002782, -0.003591, -0.002754, -0.002711, -0.002738, -0.002533, -0.003384, -0.003259, -0.001527, -0.000374, -0.000207, 0.000379, -0.000431, -0.000431, -0.000431, -0.000431, -0.000946, -0.001292, -0.001148, -0.002254, -0.001001, -0.002701, -0.003585, -0.002778, -0.003588, -0.00359, -0.002781, -0.003591, -0.002776, -0.003577, -0.002504, -0.002431, -0.00257, -0.003203, -0.002583, -0.002566, -0.003551, -0.002664, -0.001039, -0.000431, -0.000431, -0.000431, -0.000431, 0.000379, 6.2e-005, -0.001673, -0.001838, -0.003015, 0.001797, -0.003573, -0.002778, -0.00359, -0.003585, -0.00358, -0.002779, -0.003588, -0.002771, -0.002421, 0.002469, 0.001497, -6.6e-005, -0.002676, -0.003336, -0.002766, -0.002776, -0.003584, -0.002759, 0.000379, -0.000431, -0.000431, 0.000379, -0.000431, 0.000149, -0.001025, -0.00208, -0.002542, -0.000774, -0.002773, -0.00278, -0.003591, -0.003589, -0.003592, -0.002782, -0.002781, -0.003587, -0.003568, -0.003549, -0.00357, -0.002772, -0.003586, -0.002778, -0.002778, -0.002777, -0.002777, -0.002772, 0.000379, 0.000379, 0.000379, 0.000379, -0.000431, -0.001186, -0.001484, -0.001974, -0.003463, -0.003548, -0.002778, -0.003591, -0.002781, -0.002781, -0.003592, -0.002782, -0.002782, -0.002779, -0.003584, -0.002775, -0.002776, -0.002775, -0.002777, -0.002778, -0.002778, -0.002777, -0.003587, -0.003511, 0.000379, -0.000431, -0.000431, -0.000431, 0.000379, -0.000851, -0.002692, -0.003256, -0.003449, -0.002753, -0.002778, -0.00278, -0.00359, -0.003591, -0.002782, -0.003592, -0.00278, -0.002767, -0.002777, -0.003587, -0.003583, -0.002753, -0.002753, -0.002764, -0.002762, -0.003558, -0.00349, 0.000379, -0.000431, 0.000379, 0.000379, 0.000298, 0.000182, -0.001331, -0.001854, -0.002446, -0.00356, -0.003587, -0.002777, -0.003588, -0.002777, -0.002762, -0.003584, -0.003577, 0.000645, 0.001825, -0.003503, -0.003536, -0.00254, -0.001036, -0.001615, -0.001841, -0.000159, 0.003222, 0.00281, -0.000431, 0.000379, 0.000379, -0.000431, 0.000214, 0.00016, -0.002127, -0.002142, -0.003329, -0.002766, -0.003586, -0.002775, -0.003588, -0.003589, -0.00278, -0.002763, -0.002739, 0.00164, 0.002, -0.003524, -0.00356, -0.003519, -0.002583, -0.002667, 0.001973, 0.003362, 0.003388, 0.002343, -0.000431, -0.000431, -0.000431, -0.000431, -0.000634, -0.000651, -0.001659, -0.003208, -0.00333, -0.003567, -0.003587, -0.00277, -0.002671, -0.00359, -0.003591, -0.003588, -0.002644, 0.001899, -0.001685, -0.003532, -0.002736, -0.002742, -0.003162, -0.002632, 0.003288, 0.0033, 0.002953, 0.000379, -0.000431, 0.000379, 0.000379, 0.000379, 0.000252, 0.000151, -0.001879, -0.003104, -0.002535, -0.003578, -0.002778, -0.002762, 0.002226, -0.003586, -0.00359, -0.002779, -0.003364, 0.000932, -0.002479, -0.003501, -0.003537, -0.003239, 0.000799, 0.0023, 0.003243, 0.002448, 0.00104, 0.000379, 0.000379, -0.000431, -0.000431, -0.000431, -0.002245, -0.002274, -0.002234, -0.003507, -0.002717, -0.002775, -0.002779, -0.003574, 0.001497, -0.003587, -0.002781, -0.00359, 0.000919, 0.002267, 0.002344, 0.001028, 0.001471, 0.001887, 0.002815, 0.003279, 0.003008, 0.002859, 0.000983, -9.9e-005, 0.000379, -0.000431, -0.000431, -0.000431, -0.002622, -0.003435, -0.002678, -0.003518, -0.00273, -0.003588, -0.003591, -0.003589, -0.002776, -0.002781, -0.002781, -0.002779, -0.00095, 0.002585, 0.002576, 0.003113, 0.001245, 0.002845, 0.000701, 0.002705, 0.002689, 0.00263, 0.002525, 0.001324, 0.000379, 0.000379, -0.000431, 0.000379, -0.002585, -0.00262, -0.003478, -0.003487, -0.00352, -0.002769, -0.002779, -0.002781, -0.003591, -0.003592, -0.003592, -0.00359, 0.003077, 0.002494, 0.00238, -0.000249, -0.001948, -0.001086, -0.001449, -0.000617, 0.000972, 0.001654, 0.002147, 0.000526, -0.000431, -0.000431, 0.000379, 0.000379, -0.000431, -0.003082, -0.002398, -0.003078, -0.002429, -0.002733, -0.003581, -0.002777, -0.003591, -0.002781, -0.002781, -0.002775, -0.003258, -0.002407, -0.003376, -0.00348, -0.002645, -0.003257, -0.001886, -0.001082, 0.000144, 0.001109, 0.000859, -7.3e-005, -0.000431, 0.000379, -0.000431, 0.000379, -0.000431, -0.000431, 0.000379, -0.000674, -0.000416, -0.003127, -0.002696, -0.002711, -0.003579, -0.002772, -0.003577, -0.002751, -0.003522, -0.002725, -0.002698, -0.003438, -0.002395, -0.001616, -0.001639, -0.00069, -0.000848, -0.000431, -0.000431, 0.000379, -0.000431, 0.000379, 0.000379, 0.000379, -0.000431, -0.000431, -0.000431, 0.000306, -0.000293, 0.000425, -0.001261, -0.002437, -0.002436, -0.00342, -0.003515, -0.00273, -0.002669, -0.003476, -0.003352, -0.002988, -0.002188, 3.4e-005, -6e-005, -0.000783, -0.000431, 0.000379, 0.000379, 0.000379, -0.000431, -0.000431, -0.000431, -0.000431, 0.000379, 0.000379, 0.000379, -0.000431, 0.000379, 0.00149, 0.002712, 0.002065, 0.000523, 0.00092, 0.000461, -0.000397, -0.001815, -0.002015, -0.001677, -0.002206, 5.5e-005, -0.000431, -0.000431, -0.000431, 0.000379, 0.000379, -0.000431, 0.000379, -0.000431, 0.000379, -0.000431, -0.000431, 0.000379, 0.000379, -0.000431, -0.000431, 0.000379, -0.000431, 0.000379, -0.000431, -0.000431, -0.000431, -0.000431, 0.000379, 0.000379, -0.000431, -0.000431, -0.000431, 0.000379, 0.000379, -0.000431, -0.000431, -0.000431, 0.000379, 0.000379, 0.000379, -0.000431, -0.000431, -0.000431, -0.000431, -0.000431, 0.000379, -0.000431, 0.000379, -0.000431, -0.000431, 0.000379, 0.000379, -0.000431, 0.000379, -0.000431, 0.000379, -0.000431, -0.000431, -0.000431, -0.000431, -0.000431, -0.000431, -0.000431, -0.000431, 0.000379, 0.000379, -0.000431, -0.000431, -0.000431, 0.000379},
		{-0.000533, -0.000533, -0.000533, -0.000533, -0.000533, -0.000533, 0.000606, -0.000533, 0.000606, -0.000533, 0.000606, 0.000606, 0.003973, 0.007352, 0.029051, 0.02753, -0.000533, 0.000606, 0.000606, -0.000533, -0.000533, 0.000606, -0.000533, -0.000533, -0.000533, -0.000533, 0.000606, -0.000533, -0.000533, -0.000533, 0.000606, 0.000606, -0.012523, -0.041367, -0.135539, -0.164964, -0.180209, -0.217217, -0.289639, -0.3512, -0.335823, -0.301961, -0.212559, -0.098926, -0.084529, -0.203833, -0.313968, -0.203639, -0.177391, -0.117433, -0.09042, -0.057656, -0.000533, 0.000606, -0.000533, -0.000533, -0.000533, 0.000606, -0.0132, -0.032154, -0.07352, -0.061986, -0.202568, -0.306834, -0.419489, -0.479422, -0.435959, -0.536887, -0.530608, -0.453372, -0.396571, -0.317361, -0.284012, -0.195585, -0.19172, -0.244506, -0.236346, -0.206828, -0.198468, -0.088098, 0.020084, -0.008365, -0.000533, -0.000533, -0.000533, 0.000606, 0.014286, -0.059855, -0.06619, 0.003798, -0.106574, -0.214163, -0.188929, -0.232472, -0.24977, -0.302393, -0.411623, -0.483701, -0.320415, -0.227241, -0.190165, -0.095097, -0.062496, -0.026199, 0.084196, 0.124959, 0.193653, 0.089889, 0.093092, 0.008825, 0.000368, -0.000533, 0.000606, 0.007381, 0.058034, 0.000727, 0.046555, 0.103312, -0.05115, 0.012004, 0.045702, -0.010396, -0.069601, -0.104953, -0.109791, -0.15887, -0.127921, -0.15519, -0.166333, -0.059204, -0.021742, -0.034579, -0.015124, -0.051243, -0.020964, 0.061797, 0.167944, 0.133161, 0.042261, 0.027234, 0.000606, -0.000533, 0.027396, 0.085071, 0.068747, 0.079635, 0.031082, 0.030592, 0.107541, 0.078174, 0.0632, 0.100074, 0.065098, 0.007743, 0.003844, -0.019624, -0.038611, -0.043452, -0.022997, -0.068688, -0.040198, -0.057445, -0.055901, -0.021795, 0.072879, 0.15116, 0.0801, 0.021532, -0.000533, -0.021067, 0.042875, 0.192114, 0.105177, 0.067209, 0.026054, -0.015128, 0.093002, 0.156053, 0.117491, 0.097904, 0.129876, 0.153588, 0.133612, 0.131446, 0.060045, 0.022701, 0.000215, -0.051767, -0.003751, 0.021471, -0.052524, 0.001168, 0.002213, 0.111852, 0.132119, -0.04124, 0.000964, -0.026035, 0.043171, 0.273298, 0.271151, 0.123514, 0.074802, 0.030273, 0.078087, 0.095234, 0.079863, 0.102674, 0.107572, 0.189446, 0.099717, 0.097102, 0.036854, -0.016544, -0.044689, -0.030217, 0.028864, 0.047326, 0.011263, -0.051767, -0.019458, 0.085545, 0.157561, 0.00316, 0.002718, 0.034729, 0.131016, 0.259109, 0.287103, 0.167156, 0.111189, 0.095325, 0.071236, 0.118488, 0.106777, 0.122347, 0.078712, 0.063628, 0.041101, 0.05738, -0.000578, -0.049823, -0.014126, 0.015216, 0.022719, 0.040809, 0.018871, -0.029391, 0.010936, 0.161146, 0.141575, -0.005688, 0.008565, 0.043837, 0.078575, 0.230186, 0.282744, 0.205594, 0.108017, 0.005075, 0.008984, 0.073009, 0.08138, 0.109386, 0.070972, 0.018624, 0.013314, 0.005228, -0.070875, -0.015981, 0.048233, 0.04871, 0.094022, 0.065034, 0.082401, 0.088761, 0.041121, 0.078083, 0.135871, -1.6e-005, 0.013357, 0.058007, 0.038517, 0.222267, 0.142134, 0.129989, 0.067947, 0.001157, 0.009298, 0.025583, 0.069832, 0.067743, 0.013587, -0.043281, -0.083959, -0.126642, -0.089631, -0.03064, 0.037849, 0.082062, 0.105904, 0.051078, 0.055623, 0.064312, 0.010651, 0.00553, 0.0684, 0.020833, 0.028126, 0.053044, -0.039631, 0.248488, 0.05383, 0.15079, 0.027867, 0.009965, 0.033567, 0.07197, 0.089089, 0.029794, 0.006157, -0.061899, -0.102774, -0.071503, -0.059392, -0.029961, 0.015434, 0.064561, 0.100519, 0.022149, 0.058469, -0.023036, -0.044231, 0.025102, 0.035368, -0.009601, 0.010835, -0.021803, 0.034287, 0.190444, 0.025285, 0.058878, -0.086076, -0.056296, 0.023581, 0.032538, 0.017149, -0.041119, -0.067738, -0.056611, -0.059432, -0.032618, 0.043981, 0.042535, 0.053373, 0.105911, 0.071682, 0.040909, 0.018445, -0.054837, -0.03377, 0.182218, 0.139882, 0.060894, -0.0289, 0.002992, 0.04095, 0.086705, -0.040175, -0.10113, -0.151125, -0.12126, -0.066643, -0.064813, -0.010354, -0.07342, -0.077188, 0.001746, 0.028751, 0.071788, 0.137231, 0.125201, 0.098164, 0.107956, 0.088496, 0.013274, -0.067498, -0.160148, -0.089829, 0.202206, 0.213126, 0.058599, -0.03047, -0.030949, -0.012695, 0.193797, -0.019908, -0.177791, -0.163154, -0.103258, -0.147359, -0.121779, -0.10633, -0.062257, -0.003227, 0.036882, 0.097788, 0.141572, 0.163261, 0.169334, 0.100237, 0.148466, 0.039382, -0.076408, -0.131185, -0.208502, -0.127772, 0.093609, 0.258897, 0.067037, -0.00206, -0.000885, 0.08077, 0.251023, 0.027907, -0.09999, -0.087537, -0.102543, -0.106603, -0.104185, -0.059669, 0.009305, 0.047967, 0.066327, 0.103736, 0.153254, 0.158287, 0.180386, 0.08654, 0.082016, 0.001961, -0.04882, -0.018224, -0.114799, -0.075726, -0.044386, 0.295173, 0.092881, 0.03052, -0.055315, 0.063159, 0.192077, 0.003123, -0.09402, -0.050902, -0.030135, -0.085577, -0.084883, -0.013886, 0.027553, 0.125632, 0.131172, 0.058323, 0.113877, 0.177751, 0.157157, 0.07067, 0.023066, 0.05363, 0.044327, 0.025832, -0.016908, -0.057087, 0.009568, 0.334642, 0.075599, 0.000606, -0.023126, 0.131124, 0.168775, 0.007933, -0.053324, -0.027077, 0.00266, -0.028124, -0.075675, -0.082126, 0.031976, 0.131993, 0.12951, 0.048809, 0.069985, 0.084281, 0.067165, 0.006138, -0.020651, 0.028862, 0.021599, 0.005204, -0.0695, -0.063415, 0.029481, 0.215357, 0.085043, -0.002177, 0.043143, 0.128411, 0.202214, 0.042307, 0.021246, 0.057539, -0.019508, -0.099887, -0.150598, -0.100063, -0.00479, 0.01159, 0.052984, -0.001681, -0.017762, -0.021494, -0.023907, -0.032608, -0.005928, 0.030337, -0.010061, -0.009244, -0.045853, 0.00503, 0.043275, 0.181603, 0.008869, -0.017185, 0.03346, 0.10373, 0.257348, 0.067992, 0.03496, 0.040131, 0.03967, -0.083002, -0.104233, -0.125607, -0.146539, -0.135284, -0.054578, -0.076429, -0.06939, -0.050247, -0.025791, -0.060415, -0.005858, 0.031123, 0.012606, -0.00845, -0.032293, -0.001214, 0.10997, 0.162609, -0.050123, 0.000606, 0.085735, 0.18317, 0.190284, 0.062889, 0.026727, 0.058112, 0.029357, -0.024769, -0.061015, -0.113308, -0.179558, -0.160156, -0.12966, -0.123634, -0.143873, -0.105147, -0.070507, -0.06872, 0.010767, 0.044219, 0.022543, -0.096788, -0.032994, -0.005856, 0.14995, 0.067494, -0.019854, -0.012545, 0.078084, 0.164736, 0.129205, 0.059625, -0.011431, -0.004, -0.018302, 0.006849, -0.062099, -0.124185, -0.147246, -0.110731, -0.066757, -0.125469, -0.14808, -0.091848, -0.028903, -0.047484, 0.026325, -0.034472, -0.06684, -0.125607, -0.010715, 0.077828, 0.103887, -0.042706, -0.008026, -0.013677, 0.01848, 0.177016, 0.164036, 0.10637, -0.050557, -0.011153, 0.036275, 0.029764, -0.031847, -0.035857, -0.034099, -0.050509, -0.089657, -0.096734, -0.11098, -0.041233, -0.034234, -0.00587, 0.013515, 0.017914, 0.034555, 0.046198, -0.018329, 0.073938, 0.101114, -0.0641, -0.009508, 0.000606, -0.000533, 0.052536, 0.072491, 0.079503, -0.039679, -0.003132, 0.074473, 0.046303, -0.004324, 0.025833, 0.055021, 0.027612, 0.023281, -0.00043, -0.005398, 0.011217, 0.042789, 0.098205, 0.095548, 0.071142, 0.159587, 0.118145, 0.042173, 0.12074, 0.116499, -0.033114, -0.000533, -0.000533, -0.000533, 0.031755, 0.034465, 0.061689, 0.011834, 0.109163, 0.117134, 0.107293, -0.01805, 0.053025, 0.16851, 0.091222, 0.124183, 0.089436, 0.065921, 0.123988, 0.104789, 0.099298, 0.137437, 0.15001, 0.241047, 0.114091, 0.131766, 0.072821, 0.116555, 0.004358, 0.000606, 0.000606, 0.000606, -0.0017, 0.048984, 0.188488, 0.29727, 0.283325, 0.250756, 0.234099, 0.160501, 0.288087, 0.225654, 0.153377, 0.236235, 0.237262, 0.243499, 0.27908, 0.235278, 0.18164, 0.17044, 0.19501, 0.185655, 0.070255, 0.034129, -0.017433, 0.03982, 0.032219, -0.000533, 0.000606, 0.000606, -0.000533, 0.028176, 0.211111, 0.146688, 0.27451, 0.335003, 0.30535, 0.334481, 0.23807, 0.138799, 0.141346, 0.151426, 0.206224, 0.186959, 0.172688, 0.199414, 0.247811, 0.116874, 0.088453, 0.149684, 0.088968, 0.092153, 0.031026, 0.001055, 0.000606, 0.000606, 0.000606, 0.000606, 0.000606, -0.000533, 0.015288, -0.010588, -0.020295, -0.008482, 0.017119, 0.064914, 0.161369, 0.242063, 0.258668, 0.28353, 0.284828, 0.321077, 0.274871, 0.25073, 0.158267, 0.123293, 0.094535, 0.180579, 0.112255, 0.053213, 0.000606, 0.000606, 0.000606, -0.000533},
		{-0.000486, -0.000486, -0.000486, -0.000486, -0.000486, -0.000486, 0.000553, -0.000486, 0.000553, -0.000486, 0.000553, 0.000553, -0.011941, -0.006113, 0.032093, 0.029411, -0.000486, 0.000553, 0.000553, -0.000486, -0.000486, 0.000553, -0.000486, -0.000486, -0.000486, -0.000486, 0.000553, -0.000486, -0.000486, -0.000486, 0.000553, 0.000553, -0.003053, -0.006805, -0.05039, -0.043278, -0.031162, -0.058955, -0.085885, -0.09737, -0.145207, -0.15556, -0.077419, 0.001159, -0.001241, -0.122809, -0.267039, -0.238464, -0.190767, -0.12044, -0.069009, -0.034042, -0.000486, 0.000553, -0.000486, -0.000486, -0.000486, 0.000553, -0.028906, -0.032107, -0.058874, 0.006828, -0.054957, -0.035488, -0.027473, -0.129778, -0.092946, -0.113904, -0.058798, -0.095997, -0.067223, -0.082878, -0.097228, -0.105987, -0.194793, -0.360998, -0.303616, -0.320891, -0.285844, -0.20042, -0.092107, -0.002322, -0.000486, -0.000486, -0.000486, 0.000553, -0.007943, -0.056993, -0.02122, -0.044086, -0.067902, -0.046758, -0.041128, -0.03994, -0.089443, -0.051656, -0.047068, -0.117349, -0.141548, -0.181437, -0.242289, -0.224425, -0.139535, -0.131218, -0.116741, -0.153588, -0.198366, -0.280479, -0.171071, -0.076728, -0.017364, -0.000486, 0.000553, -0.002655, 0.015772, -0.041113, 0.035106, -0.016182, -0.02447, -0.043938, -0.056241, 0.048277, 0.008686, 0.007825, 0.080125, 0.046018, -0.008446, -0.016328, -0.088698, -0.136212, -0.156638, -0.204763, -0.196281, -0.200298, -0.20319, -0.184492, -0.093466, -0.067471, -0.065844, -0.054691, 0.000553, -0.000486, -0.01948, 0.026934, -0.003407, -0.074015, -0.038231, -0.071506, -0.067964, -0.039162, -0.068972, -0.057255, -0.031357, -0.023266, -0.011916, 0.022661, -0.007087, -0.080524, -0.105944, -0.123585, -0.083565, -0.036265, -0.014838, 0.043081, -0.0124, -0.03232, -0.009084, -0.031666, -0.000486, -0.008827, -0.054984, -0.00993, 0.05413, -0.055857, -0.02412, -0.12619, -0.121914, -0.098964, -0.07054, -0.101231, -0.140268, -0.128457, -0.047061, -0.092851, -0.132196, -0.150157, -0.130563, -0.08303, -0.043887, -0.014846, 0.030487, 0.10059, 0.142269, 0.048752, 0.092443, 0.061525, -0.000486, -0.043077, -0.031855, 0.035928, -0.033827, -0.151251, -0.130422, -0.153641, -0.10975, -0.100754, -0.120257, -0.111073, -0.134819, -0.115691, -0.048191, -0.096979, -0.071849, -0.068841, -0.064068, -0.014941, 0.008588, 0.050443, 0.031128, 0.047107, 0.097859, 0.071786, 0.074663, 0.030491, -0.000486, -0.065962, -0.09191, 0.003467, -0.07551, -0.212915, -0.219226, -0.128659, -0.128875, -0.138131, -0.112325, -0.107242, -0.079099, 0.019837, 0.013321, 0.02926, 0.000178, 0.032009, 0.075171, 0.096446, 0.090713, 0.0607, 0.022103, 0.037134, 0.060447, 0.083132, 0.000264, 0.045723, 0.000553, -0.066821, -0.13758, -0.092312, -0.174596, -0.200655, -0.149438, -0.078768, -0.075288, -0.079802, -0.088953, -0.039405, 0.032926, 0.136602, 0.087058, 0.117808, 0.048422, 0.099262, 0.13201, 0.145375, 0.085762, 0.053192, 0.026858, -0.022598, 0.048923, 0.153628, 0.071212, 0.061694, 0.000553, -0.061617, -0.09897, -0.068386, -0.123505, -0.149105, -0.077048, -0.041064, -0.002983, -0.036502, 0.001371, 0.032563, 0.104813, 0.106815, 0.091574, 0.107486, 0.039627, 0.022304, 0.025447, 0.088561, 0.038172, 0.015534, -0.009979, -0.020502, 0.17436, 0.233274, 0.228133, 0.033071, 0.000553, 0.009313, -0.072191, -0.062848, -0.199305, -0.10411, -0.034585, -0.0075, 0.072917, 0.023203, 0.041819, 0.039588, 0.058163, 0.014245, 0.01688, 0.048721, 0.025372, -0.048321, -0.036865, -0.006458, -0.068155, -0.110681, -0.099785, -0.025535, 0.15686, 0.275432, 0.152146, 0.013152, 0.000553, -0.058379, -0.097423, -0.039248, -0.145031, -0.084454, 0.003775, 0.052, 0.049599, 0.016315, 0.082333, 0.05385, 0.100563, 0.109718, 0.121208, 0.075057, 0.017836, -0.073689, -0.073272, -0.03728, -0.081249, -0.149035, -0.191327, -0.22435, -0.107133, 0.06552, 0.009631, 0.028319, 0.027832, -0.027983, -0.097782, -0.014285, -0.104761, -0.078074, 0.002011, 0.118142, 0.101516, 0.064366, 0.080826, 0.053823, 0.112052, 0.099853, 0.122794, 0.083057, 0.105368, 0.062619, -0.051231, -0.08796, -0.141894, -0.135225, -0.192486, -0.188856, -0.152398, 0.007379, 0.040122, 0.033722, 0.003619, 0.016306, -0.021058, 0.076291, 0.014815, 0.042059, 0.041245, 0.160183, 0.140784, 0.115649, 0.050693, 0.037747, 0.056607, 0.040591, 0.020781, 0.057637, 0.148803, 0.120274, -0.000839, -0.067595, -0.128594, -0.127311, -0.157069, -0.088188, 0.043751, 0.035683, 0.168005, 0.048584, 0.002376, 0.026708, 0.10177, 0.167759, 0.060916, 0.086604, 0.081147, 0.145567, 0.152493, 0.179767, 0.118802, 0.08869, 0.087484, 0.0312, 0.020029, 0.082393, 0.117123, 0.083825, -0.02745, -0.100096, -0.18911, -0.116749, -0.020842, 0.085903, 0.107706, 0.023452, 0.202706, 0.102958, -0.000486, 0.015469, 0.03245, 0.093156, -0.010915, 0.068322, 0.076052, 0.050416, 0.061196, 0.104099, 0.099216, 0.101859, 0.099595, 0.107478, 0.11353, 0.103567, 0.065428, 0.031207, -0.035469, -0.094502, -0.093966, 0.011654, 0.046165, 0.089119, 0.05762, 0.04812, 0.199091, 0.061757, 0.000553, 0.012148, 0.004806, 0.069999, 0.072275, 0.133982, 0.127856, 0.074466, 0.009515, 0.083498, 0.095737, 0.098358, 0.111451, 0.116831, 0.143774, 0.124996, 0.023583, -0.048315, -0.031122, -0.048356, -0.039072, 0.02144, -0.051144, 0.081363, -0.014546, 0.045014, 0.097406, 0.083075, 0.007138, 0.024612, -0.03267, 0.099621, 0.124676, 0.167624, 0.116472, 0.041537, 0.045089, 0.024126, 0.019688, 0.029876, 0.052034, 0.080255, 0.10416, 0.071226, -0.031931, -0.090628, -0.056271, 0.017439, 0.038658, 0.049054, 0.029007, 0.080047, 0.037673, 0.039772, 0.133299, 0.122995, 0.01059, -0.026662, -0.061723, 0.077862, 0.072271, 0.122605, 0.065181, 0.040254, 0.005611, -0.004476, -0.028607, -0.047518, -0.062648, 0.022968, 0.021073, 0.042669, -0.042446, -0.08238, -0.003639, 0.034497, 0.021089, 0.029084, 0.001369, 0.069153, 0.149093, 0.117987, 0.175602, 0.060649, 0.000553, -0.031506, -0.024856, 0.030529, 0.04407, 0.020213, -0.002694, -0.023732, -0.064565, -0.061074, -0.146403, -0.127073, -0.160886, -0.109197, -0.093505, -0.05071, -0.027087, -0.038424, 0.049974, 0.015153, -0.042852, -0.050686, -0.046925, 0.023125, 0.128542, 0.145038, 0.1344, 0.026902, 0.003846, 0.001596, 0.052631, 0.081502, 0.054977, -0.008665, -0.085067, -0.096396, -0.133507, -0.135747, -0.19447, -0.179869, -0.169913, -0.14197, -0.121966, -0.116006, -0.075954, -0.04665, -0.026367, -0.016821, -0.049131, 0.003323, 0.028357, 0.05145, 0.194495, 0.059622, 0.023777, 0.000553, 0.002805, 0.002425, 0.070474, 0.117722, -0.005226, -0.080989, -0.060842, -0.161718, -0.149886, -0.159919, -0.161483, -0.094185, -0.083182, -0.093924, -0.119093, -0.090697, -0.084821, -0.004128, -0.009126, -0.02335, -0.013611, 0.017373, 0.035754, 0.097356, 0.186475, 0.096779, 0.02381, -0.000486, 0.000553, -0.000486, 0.052082, 0.094615, -0.064187, -0.117264, -0.166478, -0.137282, -0.036631, -0.063001, -0.070965, -0.023195, -0.009731, -0.018005, 0.014121, -0.038812, -0.02831, 0.011074, -0.019538, 0.041008, 0.060919, 0.055232, 0.049198, 0.102682, 0.124199, 0.125287, 0.102558, -0.000486, -0.000486, -0.000486, -0.006463, -0.03956, -0.124075, -0.180195, -0.213368, -0.148346, -0.047827, 0.01011, 0.010855, -0.000939, 0.013084, 0.017461, 0.03296, -0.017687, -0.036359, -0.006572, 0.079667, 0.076407, 0.057704, 0.143793, 0.178214, 0.161884, 0.053166, 0.115572, 0.060333, 0.000553, 0.000553, 0.000553, 0.028001, -0.021282, -0.046452, -0.137942, -0.211708, -0.157436, -0.133335, -0.0724, -0.085087, -0.087134, -0.142067, -0.04627, -0.043939, 0.007419, -0.018453, -0.041723, -0.018754, -0.058554, 0.011924, 0.11634, 0.109399, 0.16352, 0.110772, 0.043682, 0.032171, -0.000486, 0.000553, 0.000553, -0.000486, 0.028201, 0.092025, -0.029163, -0.075403, -0.144221, -0.172826, -0.091257, -0.055365, 0.035556, 0.035629, -0.018122, -0.040238, 0.063187, 0.066977, 0.010095, -0.059589, -0.017432, 0.043471, -0.003998, -0.014648, -0.014267, 0.031136, -0.000486, 0.000553, 0.000553, 0.000553, 0.000553, 0.000553, -0.000486, -0.005727, -0.025414, -0.080965, -0.105306, -0.113023, -0.086843, -0.124716, -0.045577, -0.027813, -0.079631, -0.053126, 0.003466, -0.020021, -0.028488, 0.011224, 0.018483, 0.023572, 0.005142, -0.028334, -0.029402, 0.000553, 0.000553, 0.000553, -0.000486},
		{0.000474, 0.000474, 0.000474, 0.000474, 0.000474, 0.000474, -0.00054, 0.000474, -0.00054, 0.000474, -0.00054, -0.00054, 0.000474, 0.000474, -0.00054, 0.000474, 0.000474, -0.00054, -0.00054, 0.000474, 0.000474, -0.00054, 0.000474, 0.000474, 0.000474, 0.000474, -0.00054, 0.000474, 0.000474, 0.000474, -0.00054, -0.00054, -0.00054, 0.000474, 0.000474, -0.00054, 0.000474, 0.000474, 0.000474, -0.00054, 0.000474, -0.00054, 0.000474, -0.00054, 0.000474, -0.00054, -0.00054, 0.000474, 0.000474, 0.000474, 0.000474, -0.00054, 0.000474, -0.00054, 0.000474, 0.000474, 0.000474, -0.00054, 0.000474, 0.000474, 0.000474, 0.000474, -0.00054, 0.000474, -0.00054, -0.00054, -0.00054, -0.001774, -0.002382, -0.002357, -0.001139, -0.000969, -0.00054, -0.00054, -0.00054, 0.000474, -0.00054, 0.000474, -0.00054, 0.000474, -0.00054, 0.000474, 0.000474, 0.000474, 0.000474, -0.00054, -0.00054, -0.00054, -0.00054, -0.00054, -0.00054, -0.00054, -0.00054, 0.000474, -0.002417, -0.002647, -0.003687, -0.002674, -0.003679, -0.00266, -0.002606, -0.003275, 0.002433, 0.002759, 0.003033, 0.002737, 0.000438, -0.00054, -0.00054, 0.000474, -0.00054, 0.000474, -0.00054, 0.000474, 0.000474, -0.00054, 0.000474, 0.000474, 0.000474, 0.000474, -0.000903, -0.000767, -0.002639, -0.00369, -0.002668, -0.00267, -0.002667, -0.002665, -0.003697, -0.002684, -0.002668, -0.003557, -0.000259, 0.003358, 0.002668, -0.00054, -0.00054, 0.000474, 0.000474, 0.000474, -0.00054, 0.000474, 0.000474, 0.000474, -0.00054, -0.00054, 0.000153, -0.001365, -0.00238, -0.002659, -0.003689, -0.003679, -0.002665, -0.003684, -0.002675, -0.003694, -0.003698, -0.002685, -0.002683, -0.003681, -0.000461, 0.003227, 0.00202, -0.000181, -0.00054, -0.00054, -0.00054, -0.00054, 0.000474, -0.00054, 0.000474, -0.00054, 0.000474, -0.001494, 0.00037, -0.003632, -0.003682, -0.003614, -0.002576, -0.002192, 0.00335, 0.002575, -0.00315, -0.002629, -0.002683, -0.002685, -0.00268, -0.003682, -0.001098, 0.002247, 0.000712, 0.000814, -0.00054, 0.000474, 0.000474, 0.000474, 0.000474, -0.00054, -0.00054, -0.000327, -0.002517, -0.003243, -0.002958, -0.002528, -0.002558, -0.003508, -0.001969, -0.002644, -0.002656, -0.002683, -0.002684, -0.002686, -0.002685, -0.002683, -0.002669, -0.002666, -0.002376, 0.001883, 0.001707, 0.001719, 0.000837, 9.2e-005, 0.000474, 0.000474, 0.000474, -0.00054, -0.00054, -0.001295, -0.002941, -0.002338, -0.002104, -0.001422, -0.001205, -0.002211, -0.002674, -0.002683, -0.003696, -0.003699, -0.0037, -0.002687, -0.003701, -0.002686, -0.002678, -0.002604, -0.002201, -0.001735, 0.002981, 0.000547, 4.6e-005, -0.0003, -0.000959, 0.000474, -0.00054, 0.000474, -0.00054, -0.000593, -0.002596, -0.002047, -0.002279, 0.001586, 0.000194, 0.002145, -0.003693, -0.003696, -0.003695, -0.003698, -0.003701, -0.003701, -0.002688, -0.003701, -0.002678, -0.002594, -0.001216, 0.003436, 0.002135, 0.001103, 0.000859, -0.000491, -0.000283, 0.000474, -0.00054, -0.00054, -0.00054, -0.00054, -0.001207, -0.001202, 0.001373, 0.002896, 0.002073, -0.002654, -0.003696, -0.002682, -0.003696, -0.003699, -0.002687, -0.003701, -0.002687, -0.003698, -0.002668, -0.002534, 0.003318, 0.00242, 0.00331, 0.003161, -0.003666, -0.002616, -0.001324, -0.00054, -0.00054, -0.00054, -0.00054, 0.000474, 6.1e-005, -0.000288, 0.002519, 0.001869, 0.003227, -0.00369, -0.002685, -0.003699, -0.003695, -0.003695, -0.002687, -0.0037, -0.002686, -0.00268, -0.003654, -0.002367, 0.003316, 0.002386, 0.002396, -0.002653, -0.002684, -0.003696, -0.002674, 0.000474, -0.00054, -0.00054, 0.000474, -0.00054, 0.000716, 0.002103, 0.002821, 0.003017, 0.003488, -0.002681, -0.002686, -0.0037, -0.003699, -0.003701, -0.002688, -0.002688, -0.003701, -0.003699, -0.003694, -0.003693, -0.002683, -0.003695, -0.002683, -0.002683, -0.002685, -0.002685, -0.002681, 0.000474, 0.000474, 0.000474, 0.000474, -0.00054, 7.3e-005, 0.002573, 0.002731, 0.002343, -0.003548, -0.002684, -0.0037, -0.002687, -0.002687, -0.003701, -0.002688, -0.002688, -0.002688, -0.0037, -0.002687, -0.002686, -0.002684, -0.002684, -0.002684, -0.002684, -0.002684, -0.003698, -0.003652, 0.000474, -0.00054, -0.00054, -0.00054, 0.000474, 0.001574, 0.001802, 0.002344, 0.002431, -0.00264, -0.002684, -0.002686, -0.0037, -0.003701, -0.002688, -0.003701, -0.002688, -0.002686, -0.002687, -0.0037, -0.003698, -0.002683, -0.002675, -0.002662, -0.002665, -0.003676, -0.003639, 0.000474, -0.00054, 0.000474, 0.000474, 0.000273, -1.5e-005, 0.001649, 0.002647, 0.003398, -0.00336, -0.003696, -0.002685, -0.003699, -0.002685, -0.002681, -0.003699, -0.003699, -0.003684, -0.003627, -0.003656, -0.003683, -0.002665, -0.002664, -0.00262, 0.001483, 0.002593, 0.003182, 0.002814, -0.00054, 0.000474, 0.000474, -0.00054, 6.4e-005, -6.8e-005, -0.000405, 0.003191, 0.002486, -0.002635, -0.003695, -0.002685, -0.003699, -0.0037, -0.002687, -0.002685, -0.002684, -0.003661, -5.2e-005, -0.003184, -0.00366, -0.003674, -0.002664, -0.002663, 0.001785, 0.003368, 0.003393, 0.002175, -0.00054, -0.00054, -0.00054, -0.00054, -0.001043, -0.001082, 0.002529, 0.002353, 0.002505, -0.003146, -0.003697, -0.002684, -0.003665, -0.0037, -0.003701, -0.0037, -0.002683, -0.003638, -0.001547, -0.003563, -0.002665, -0.002657, -0.003673, -0.003559, 0.003278, 0.003195, 0.001305, 0.000474, -0.00054, 0.000474, 0.000474, 0.000474, 0.000158, 0.000233, 0.002884, 0.002299, 0.003561, -0.003622, -0.002683, -0.002682, -0.003669, -0.0037, -0.003701, -0.002687, -0.003695, -0.002655, -0.002626, -0.003681, -0.003678, -0.003663, -0.002649, -0.002452, 0.001371, 0.000313, -0.00089, 0.000474, 0.000474, -0.00054, -0.00054, -0.00054, -0.002584, -0.002565, -0.000277, -0.003563, -0.002423, -0.00268, -0.002685, -0.003697, -0.003688, -0.0037, -0.002688, -0.003701, -0.002672, -0.003658, -0.002655, -0.003671, -0.003649, -0.003621, -0.002483, 0.001917, -0.000565, 0.001553, 0.000718, -0.000217, 0.000474, -0.00054, -0.00054, -0.00054, -0.002662, -0.003671, -0.002652, -0.003656, -0.002637, -0.003698, -0.0037, -0.003699, -0.002686, -0.002688, -0.002688, -0.002687, -0.003684, -0.003658, -0.003657, -0.002649, -0.003493, 0.000958, -0.001873, -0.001577, 0.000306, 0.002559, 0.002557, 0.001391, 0.000474, 0.000474, -0.00054, 0.000474, -0.002655, -0.002661, -0.00367, -0.00366, -0.003657, -0.002678, -0.002686, -0.002687, -0.003701, -0.003701, -0.003701, -0.003701, -0.002637, -0.003651, -0.003538, -0.003419, 0.001008, 6.3e-005, -0.002538, -0.00066, 0.001041, 0.001626, 0.002183, 0.00039, -0.00054, -0.00054, 0.000474, 0.000474, -0.00054, -0.003604, -0.002605, -0.003594, -0.002327, -0.002643, -0.003693, -0.002685, -0.0037, -0.002687, -0.002687, -0.002684, -0.003491, 0.001782, 0.000167, -0.001076, 0.001578, -0.001675, -0.000962, -0.000428, 0.000915, 0.001391, 0.000938, -0.000193, -0.00054, 0.000474, -0.00054, 0.000474, -0.00054, -0.00054, 0.000474, -0.001141, 0.000373, -0.003358, -0.002602, -0.002643, -0.003693, -0.002682, -0.003688, -0.002611, -0.001669, -0.001415, -0.001404, -0.002251, -0.000405, -0.000565, -0.001058, 0.000312, -0.00036, -0.00054, -0.00054, 0.000474, -0.00054, 0.000474, 0.000474, 0.000474, -0.00054, -0.00054, -0.00054, 0.000289, 0.000549, 4.5e-005, 0.00107, 5.7e-005, -0.000428, -0.002896, -0.00358, -0.002485, 0.001437, 0.000558, 1.4e-005, -0.00016, -0.000812, -2.2e-005, 0.000315, -0.000389, -0.00054, 0.000474, 0.000474, 0.000474, -0.00054, -0.00054, -0.00054, -0.00054, 0.000474, 0.000474, 0.000474, -0.00054, 0.000474, 0.000631, 0.000922, -1.9e-005, -0.000411, 5.7e-005, -0.000691, 0.001792, 0.001712, 0.00199, 0.00171, 0.000482, 0.000638, -0.00054, -0.00054, -0.00054, 0.000474, 0.000474, -0.00054, 0.000474, -0.00054, 0.000474, -0.00054, -0.00054, 0.000474, 0.000474, -0.00054, -0.00054, 0.000474, -0.00054, 0.000474, -0.00054, -0.00054, -0.00054, -0.00054, 0.000474, 0.000474, -0.00054, -0.00054, -0.00054, 0.000474, 0.000474, -0.00054, -0.00054, -0.00054, 0.000474, 0.000474, 0.000474, -0.00054, -0.00054, -0.00054, -0.00054, -0.00054, 0.000474, -0.00054, 0.000474, -0.00054, -0.00054, 0.000474, 0.000474, -0.00054, 0.000474, -0.00054, 0.000474, -0.00054, -0.00054, -0.00054, -0.00054, -0.00054, -0.00054, -0.00054, -0.00054, 0.000474, 0.000474, -0.00054, -0.00054, -0.00054, 0.000474},
		{-0.000113, -0.000113, -0.000113, -0.000113, -0.000113, -0.000113, 0.000129, -0.000113, 0.000129, -0.000113, 0.000129, 0.000129, 0.01927, 0.020274, 0.025421, 0.025043, -0.000113, 0.000129, 0.000129, -0.000113, -0.000113, 0.000129, -0.000113, -0.000113, -0.000113, -0.000113, 0.000129, -0.000113, -0.000113, -0.000113, 0.000129, 0.000129, -0.008915, -0.009249, -0.017652, -0.006308, -0.012651, -0.014914, -0.074247, -0.10481, -0.090555, -0.112115, -0.006938, 0.133619, 0.120314, -0.008386, -0.097352, -0.101901, -0.073857, -0.053258, -0.011253, 0.000129, -0.000113, 0.000129, -0.000113, -0.000113, -0.000113, 0.000129, -0.000113, -0.000113, -0.012703, -0.005473, 0.008351, -0.019568, 0.002571, 0.026626, 0.011988, 0.003701, 0.103792, 0.05985, 0.133181, 0.135077, 0.089945, 0.020041, -0.033414, -0.19231, -0.170713, -0.200255, -0.12088, -0.022313, -0.00023, -0.009006, -0.000113, -0.000113, -0.000113, 0.000129, 0.018264, -0.015361, 0.029819, 0.06034, 0.0713, 0.028597, 0.029407, 0.052714, 0.019099, 0.039375, 0.191291, 0.115934, 0.038885, 0.029803, 0.022742, 0.034443, -0.014091, -0.153803, -0.15501, -0.214491, -0.196536, -0.174959, -0.131557, -0.047526, -0.014162, -0.000113, 0.000129, 0.016266, 0.034743, -0.009481, 0.185848, 0.080209, -0.010686, 0.067648, 0.155139, 0.123272, 0.065551, 0.028453, 0.10397, 0.060576, 0.004888, 0.01734, 0.012191, -0.018116, 0.025943, 0.019493, -0.023671, -0.101315, -0.170497, -0.178856, -0.098702, -0.087651, 0.026491, 0.013522, 0.000129, -0.000113, 0.086618, 0.146096, 0.193445, 0.058492, 0.006048, -0.016569, -0.037198, -0.053205, -0.051352, 0.025098, 0.026515, 0.036729, 0.035332, 0.081035, 0.027658, 0.018009, 0.030846, 0.034223, 0.02044, 0.012918, -0.016223, -0.077399, -0.046592, -0.078005, -0.000849, 0.014722, -0.000113, 0.034293, -0.000749, 0.063106, 0.130837, -0.092506, 0.004303, -0.081545, -0.025335, -0.038278, 0.009389, 0.029767, 0.019311, 0.067181, 0.087854, 0.108097, 0.095285, 0.004559, 0.014434, -0.057561, -0.073321, -0.028998, -0.051013, -0.072961, -0.087018, -0.008991, 0.050313, 0.020176, -0.006593, 0.04452, -0.060106, -0.047631, 0.131847, -0.01328, -0.012467, -0.049777, -0.079724, -0.08423, -0.021877, -0.014611, 0.029356, 0.055818, 0.122304, 0.119055, 0.04602, -0.060316, -0.073212, -0.052902, -0.105208, -0.078868, -0.059663, -0.113281, -0.200856, -0.072379, 0.046509, 0.02124, -0.011087, -0.079228, -0.09248, 0.00422, 0.070338, -0.012, -0.059143, -0.069317, -0.115319, -0.057069, 0.008441, 0.006301, 0.04574, 0.090166, 0.142398, 0.093412, 0.048041, 0.020408, -0.013663, 0.028062, -0.070168, -0.063554, -0.05591, -0.180033, -0.284624, -0.110862, 0.079889, 0.002046, -0.023995, -0.145095, -0.061716, 0.031495, 0.138342, -0.021997, -0.032224, -0.049879, -0.047614, -0.028331, 0.017648, 0.003724, 0.055588, 0.10272, 0.122665, 0.156876, 0.064856, 0.075398, 0.052526, 0.045442, 0.052306, -0.02878, -0.103098, -0.19435, -0.383991, -0.211368, 0.043314, -0.01058, -0.027912, -0.167018, -0.007624, 0.086532, 0.048849, -0.022437, 0.00959, -0.007956, -0.016769, -0.060707, -0.01687, -0.012146, -0.02994, 0.008616, 0.107905, 0.070777, 0.068503, 0.11208, 0.147736, 0.173956, 0.118866, 0.016272, -0.078955, -0.192036, -0.453743, -0.184562, 0.017681, 0.023788, -0.057046, -0.172652, -0.079143, -0.014835, 0.03238, 0.042638, -0.035833, -0.010276, -0.059693, -0.0593, -0.066702, -0.078518, -0.103161, -0.011342, 0.150862, 0.075648, 0.015663, 0.099374, 0.176194, 0.197472, 0.142968, -0.017609, -0.111039, -0.247203, -0.241193, -0.061723, -0.022172, 0.070743, -0.036771, -0.167863, -0.099422, -0.045622, -0.01655, 0.03501, -0.094219, -0.042632, -0.027238, -0.017972, -0.101214, -0.145144, -0.134602, 0.050738, 0.176156, 0.086919, 0.042332, 0.163033, 0.161745, 0.126293, -0.020154, -0.14169, -0.303966, -0.286798, -0.112305, 0.049055, 0.039156, 0.052551, 0.02774, -0.153973, -0.11808, -0.075704, -0.130642, -0.098926, -0.052448, -0.01446, 0.025661, -0.011003, -0.127013, -0.14371, -0.065431, 0.156734, 0.161076, 0.076192, 0.049199, 0.132996, 0.070868, -0.001289, -0.132385, -0.221997, -0.356656, -0.267161, -0.166599, 0.002531, 0.107865, 0.047849, -0.02517, -0.051047, -0.07784, -0.068862, -0.138453, -0.163766, -0.038531, -0.015222, -0.008704, -0.052914, -0.1306, -0.158791, -0.082621, 0.104853, 0.146842, 0.067037, 0.018353, -0.0005, -0.01994, -0.080345, -0.195841, -0.183478, -0.248352, -0.186722, -0.120487, -0.011901, 0.177295, 0.051648, -0.04396, -0.030414, -0.021614, 8e-006, -0.098985, -0.029209, -0.012837, -0.048598, -0.022706, -0.048131, -0.126331, -0.121055, -0.075946, 0.078775, 0.082231, 0.004686, -0.00232, -0.059166, -0.087354, -0.122527, -0.191035, -0.167949, -0.152348, -0.140675, -0.047652, -0.003899, 0.17233, 0.038385, -0.022029, 0.06474, 0.139674, 0.120494, -0.016331, -0.00834, -0.017308, -0.046611, -0.057443, -0.000326, 0.007967, -0.041959, -0.0479, 0.024599, 0.047972, -0.044114, -0.027341, -0.08918, -0.103021, -0.114521, -0.11906, -0.064912, 0.01005, -0.008706, 0.065071, 0.120051, 0.18781, 0.069422, 0.000129, 0.100948, 0.165339, 0.132016, 0.006773, -0.079607, -0.023752, -0.056452, -0.072632, -0.029363, -0.000476, -0.02983, 0.010575, 0.007732, -0.014656, -0.039772, -0.046491, -0.063873, -0.104076, -0.062284, -0.071828, -0.037513, 0.009693, -0.040032, 0.044647, 0.111851, 0.09965, 0.148221, 0.051014, 0.114004, 0.133344, 0.088542, -0.015226, -0.105927, -0.017408, -0.044049, -0.038037, -0.026715, -0.037409, -0.058687, -0.075398, -0.040683, 0.012746, 0.008826, -0.030242, -0.025391, -0.028248, -0.002295, -0.021275, 0.003448, 0.084329, 0.037681, 0.100483, 0.14269, 0.112688, 0.126123, 0.028176, -0.0127, 0.041974, 0.085271, -0.068133, -0.124454, -0.037466, 0.019185, 0.017745, 0.05241, 0.014074, -0.072623, -0.058401, 0.043442, 0.034912, 0.047641, 0.043872, 0.05272, 0.05165, 0.057654, 0.040863, 0.020452, 0.079999, 0.06981, 0.110154, 0.189374, 0.236404, 0.090932, 0.000129, 0.015756, 0.041512, 0.148732, 0.010189, -0.100489, 0.027483, 0.083355, 0.07089, 0.059702, 0.065528, -0.027237, -0.03036, -0.003991, 0.007935, 0.017103, 0.041157, 0.069732, 0.098226, 0.113889, 0.09075, 0.077399, 0.0561, 0.064705, 0.131685, 0.184309, 0.175158, -0.000113, 0.028716, 0.129323, 0.140298, 0.185999, 0.058254, -0.033787, 0.090721, 0.051728, 0.005455, -0.00142, 0.004724, -0.054452, -0.077053, -0.050908, -0.001871, -0.017735, 0.004654, 0.052907, 0.066084, 0.084527, 0.0751, 0.06655, 0.026955, 0.115459, 0.139072, 0.144048, 0.105376, 0.000129, 0.028466, 0.054301, 0.279834, 0.258523, 0.069621, 0.141318, 0.128651, 0.088758, 0.050662, 0.037872, 0.019475, -0.037239, -0.065196, -0.029087, 0.004222, -0.03983, -0.035816, 0.028804, 0.080379, 0.071654, 0.095099, 0.06456, 0.085595, 0.112385, 0.097631, 0.104528, 0.056661, -0.000113, 0.000129, -0.000113, 0.22816, 0.169004, 0.05664, 0.062623, 0.035111, 0.082222, 0.02864, 0.042841, -0.010267, -0.025803, 0.046877, 0.055189, 0.038246, 0.040449, 0.02223, 0.07737, 0.146525, 0.087276, 0.09625, 0.077879, 0.080531, 0.120515, 0.060714, 0.097891, 0.14233, -0.000113, -0.000113, -0.000113, 0.106643, 0.078986, -0.013165, -0.029733, -0.01976, -0.034179, -0.095594, -0.093706, -0.088977, -0.067194, 0.011154, 0.014219, 0.027149, 0.035654, -0.00119, 0.075668, 0.076016, 0.04706, 0.014603, 0.021399, 0.019704, 0.144116, 0.108269, 0.164952, 0.061036, 0.000129, 0.000129, 0.000129, 0.054807, -0.100306, -0.0451, -0.094328, -0.030401, 0.003514, 0.011339, -0.048473, -0.085455, -0.067461, 0.07262, 0.052888, 0.053812, -0.002524, 0.023564, 0.002661, -0.036648, -0.007504, 0.026951, 0.0145, 0.022491, 0.010809, -0.028597, 0.05597, 0.031746, -0.000113, 0.000129, 0.000129, -0.000113, 0.002869, -0.00753, -0.080259, -0.123805, -0.106427, -0.098768, 0.009322, 0.055088, 0.024591, 0.077641, 0.034384, 0.083576, 0.042676, 0.071573, 0.10939, 0.088833, 0.051011, 0.103755, 0.139366, 0.111345, 0.106317, -0.000113, -0.026069, 0.000129, 0.000129, 0.000129, 0.000129, 0.000129, -0.000113, -0.042608, -0.05304, -0.139274, -0.203469, -0.175599, -0.22336, -0.074917, -0.001106, -0.038816, -0.001818, 0.101476, 0.041019, -0.119437, -0.068304, -0.005215, -0.025825, 0.004361, 0.057359, 0.028407, -0.011793, 0.000129, 0.000129, 0.000129, -0.000113},
		{-0.000442, -0.000442, -0.000442, -0.000442, -0.000442, -0.000442, 0.000504, -0.000442, 0.000504, -0.000442, 0.000504, 0.000504, -0.000442, -0.000442, 0.000504, -0.000442, -0.000442, 0.000504, 0.000504, -0.000442, -0.000442, 0.000504, -0.000442, -0.000442, -0.000442, -0.000442, 0.000504, -0.000442, -0.000442, -0.000442, 0.000504, 0.000504, 0.000504, -0.000442, -0.007933, 0.014424, 0.012914, 0.04587, 0.043428, 0.020129, -0.025536, -0.024356, -0.050209, -0.009866, -0.001822, 0.045737, 0.000504, -0.000442, -0.000442, -0.000442, -0.000442, 0.000504, -0.000442, 0.000504, -0.000442, -0.000442, -0.000442, 0.000504, -0.000442, -0.000442, -0.000526, 0.015198, 0.069011, 0.050086, 0.061158, 0.078241, 0.092139, 0.04426, 0.061022, 0.036179, -0.017764, -0.04602, -0.07145, -0.039949, 0.000126, 0.022864, 0.036874, -0.026358, -0.044665, 0.026147, 0.030155, 0.000565, -0.000442, -0.000442, -0.000442, 0.000504, 0.013075, 0.000504, 0.041308, 0.091914, 0.153813, 0.08092, 0.06735, 0.094884, 0.098438, 0.1188, 0.224457, 0.16807, 0.105762, 0.079348, 0.037811, 0.076999, 0.075068, 0.07949, 0.115032, 0.113464, 0.072175, 0.009483, 0.06797, -0.017944, 0.003666, -0.000442, 0.000504, 0.010655, 0.027655, 0.062678, 0.168084, 0.188379, 0.075349, 0.1028, 0.014124, 0.020897, -0.033246, 0.032897, 0.073407, 0.036594, 0.082951, 0.098824, 0.077144, 0.038653, 0.053812, 0.069377, 0.048398, 0.106946, 0.132299, 0.092308, 0.156411, 0.11742, 0.038618, 0.005855, 0.000504, -0.000442, 0.022481, 0.114077, 0.187145, 0.206905, 0.144787, 0.131252, 0.167345, 0.125909, 0.060354, 0.02453, 0.004247, -0.00192, 0.020687, 0.026244, 0.037994, -0.019641, -0.035575, -0.055527, -0.079497, -0.009224, 0.025131, 0.039981, 0.056792, 0.150613, 0.110178, 0.002648, -0.000442, 0.028559, 0.121453, 0.276672, 0.237397, 0.261726, 0.13709, 0.082398, 0.132598, 0.112722, 0.090729, 0.058352, 0.074412, 0.001792, -0.001247, 0.018267, 0.001682, 0.025758, -0.007683, 0.00051, -0.016484, -0.021558, -0.023385, 0.000711, 0.070636, 0.14465, 0.095933, 0.103773, 0.004751, 0.120695, 0.180248, 0.276524, 0.168432, 0.10124, 0.098399, 0.036669, 0.147583, 0.08553, 0.076719, 0.075671, 0.097804, 0.041947, -0.015508, -0.009404, -0.001034, 0.035396, 0.071398, 0.07926, 0.092119, 0.100105, 0.116717, 0.101194, 0.07095, 0.109759, 0.111802, 0.110973, 0.008244, 0.147258, 0.202292, 0.17566, 0.080438, 0.004855, 0.012794, 0.062889, 0.131864, 0.105551, 0.07348, 0.109414, 0.09647, 0.066612, 0.093048, 0.08702, 0.067502, 0.087526, 0.108691, 0.137752, 0.145715, 0.107929, 0.106706, 0.147303, 0.124246, 0.148867, 0.088042, 0.101273, 0.022804, 0.155493, 0.267666, 0.238157, 0.069242, -0.032695, -0.016505, 0.028938, 0.059842, 0.039983, 0.038669, 0.073938, 0.095717, 0.148493, 0.198341, 0.145613, 0.119223, 0.116204, 0.132242, 0.129733, 0.129789, 0.123777, 0.115433, 0.101832, 0.107392, 0.135707, 0.111534, 0.136052, 0.030257, 0.186912, 0.276552, 0.11495, 0.03644, -0.020028, -0.036074, -0.048992, -0.020797, -0.016656, 0.003672, 0.027755, 0.067785, 0.175496, 0.15598, 0.092916, 0.074348, 0.05986, 0.084655, 0.055382, 0.099287, 0.097851, 0.057308, -0.071678, -0.045741, 0.038062, 0.124019, 0.049306, 0.06179, 0.186921, 0.315308, 0.155374, -0.01023, -0.076057, -0.02899, -0.066522, -0.078726, -0.039167, -0.059494, -0.073285, -0.046127, -0.028213, -0.038536, -0.034159, -0.026268, 0.003751, 0.027014, -0.024248, 0.012397, -0.017542, -0.07309, -0.083608, -0.170643, 0.013377, 0.075591, -0.028124, 0.046294, 0.200505, 0.296472, 0.070598, -0.123436, -0.147134, -0.11415, -0.082745, -0.064555, -0.100295, -0.140558, -0.191011, -0.213778, -0.245089, -0.224106, -0.099303, -0.025253, -0.037416, -0.056465, -0.132405, -0.131895, -0.129781, -0.22972, -0.254884, -0.269349, -0.078282, -0.033091, -0.025764, -0.022652, 0.170764, 0.29163, 0.015852, -0.214486, -0.176627, -0.152707, -0.125931, -0.121863, -0.089068, -0.150016, -0.262491, -0.300094, -0.247262, -0.144979, -0.122049, -0.019292, -0.046526, -0.082193, -0.200836, -0.226431, -0.213195, -0.368657, -0.380498, -0.320462, -0.13732, -0.002666, 0.031117, 0.012954, 0.084945, 0.145238, 0.035305, -0.145995, -0.163082, -0.107388, -0.134751, -0.130551, -0.144069, -0.110554, -0.178994, -0.185892, -0.11937, -0.055058, -0.05941, -0.049176, -0.063845, -0.07245, -0.090469, -0.171623, -0.160909, -0.236504, -0.30759, -0.187574, -0.01919, 0.071239, 0.03205, 0.043486, 0.024519, 0.110234, 0.057912, -0.058075, -0.110757, -0.040117, -0.146753, -0.200912, -0.173796, -0.12278, -0.07519, -0.040919, -0.019558, -0.02365, -0.030111, -0.076161, -0.060983, -0.037165, -0.01698, -0.092222, -0.050891, -0.080149, -0.141819, -0.096963, 0.024776, 0.106012, 0.023664, 0.031117, 0.005886, 0.152786, 0.030247, -0.091545, -0.090783, -0.09115, -0.108096, -0.110128, -0.104741, -0.088339, -0.057384, 0.041456, 0.03334, -0.040068, -0.006791, -0.064789, -0.045963, 0.005791, 0.054584, -0.014479, 0.010871, -0.057385, -0.091523, -0.081027, 0.096853, 0.117392, 0.004216, 0.000504, 0.018106, 0.218243, 0.117449, -0.049326, -0.079403, -0.114227, -0.085551, -0.016806, -0.019607, -0.039114, 0.022627, 0.028116, 0.007759, -0.019108, -0.027927, -0.046352, -0.009205, 0.037112, 0.030936, -0.04134, -0.005297, -0.056713, -0.04471, 0.022384, 0.157204, 0.119848, 0.049664, -0.024989, 0.030108, 0.327689, 0.234811, 0.062954, -0.006188, -0.072191, -0.032456, -0.027493, 0.036871, 0.042109, 0.017273, 0.025919, 0.035078, 0.046396, 0.018166, 0.013701, 0.039642, 0.066587, 0.039912, -0.002612, -0.020205, -0.023455, 0.021392, 0.057904, 0.192522, 0.194521, 0.046953, -0.021528, 0.079338, 0.175452, 0.219062, 0.101157, 0.061118, -0.009069, -0.007704, 0.033908, 0.034705, 0.010607, -0.035009, -0.005306, 0.040308, 0.063686, 0.039298, 0.000965, 0.052684, 0.02197, 0.017862, -0.016053, -0.056081, -0.04321, -0.018066, 0.035773, 0.124735, 0.196258, 0.001548, 0.000504, 0.145772, 0.163114, 0.239797, 0.098258, 0.036113, 0.024139, 0.070269, 0.065831, 0.045535, -0.035628, -0.034032, 0.005494, 0.045631, 0.067895, 0.058735, 0.011231, 0.005822, 0.039087, -0.012107, -0.01358, -0.059193, -0.031994, 0.043961, 0.04032, -0.001766, 0.111314, 0.01793, -0.028237, 0.081727, 0.215461, 0.100579, 0.086014, 0.022789, 0.036514, 0.088937, 0.07323, 0.066527, 0.017902, -0.009318, 0.025405, 0.057877, 0.053078, 0.034762, 0.018429, 0.037249, 0.041773, 0.047211, -0.010419, -0.052614, 0.00422, 0.064199, -0.034462, 0.014893, 0.053798, -0.001912, -0.029178, 0.003598, 0.270451, 0.153766, 0.129117, 0.014583, 0.029872, 0.091809, 0.03185, 0.027532, 0.027049, 0.005489, 0.011088, -0.006136, 0.006392, 0.020927, -0.004186, -0.012643, -0.004923, 0.04208, -0.013036, -0.046608, -0.0449, 0.008304, -0.050578, 0.035201, -0.002527, -0.003144, 0.000504, -0.000442, 0.209668, 0.190339, 0.271151, 0.125942, 0.082116, 0.067526, -0.018255, 0.018352, 0.011558, 0.035062, -0.025905, -0.022074, -0.013515, -0.006334, -0.038317, -0.038996, 0.020933, 0.020543, -0.035747, -0.036268, -0.068579, -0.018146, 0.019511, 0.064309, -0.041783, -0.000442, -0.000442, -0.000442, 0.080333, 0.250558, 0.251446, 0.186998, 0.133255, 0.066602, 0.092765, 0.079323, 0.034465, 0.071517, 0.031427, 0.116338, 0.106659, 0.071384, 0.030428, 0.036538, 0.031339, -0.004404, -0.048849, -0.073373, -0.113639, -0.002818, 0.034983, -0.007191, -0.01963, 0.000504, 0.000504, 0.000504, -0.043833, 0.11855, 0.146311, 0.106139, 0.070484, 0.121068, 0.148652, 0.186734, 0.178168, 0.147758, 0.165564, 0.15605, 0.120026, 0.067714, 0.090931, 0.074079, 0.096862, 0.037599, 0.037566, -0.028379, -0.039852, -0.001618, 0.014914, -0.009929, 0.000504, -0.000442, 0.000504, 0.000504, -0.000442, -0.016889, 0.029989, 0.045596, 0.032349, 0.090915, 0.160414, 0.119616, 0.131686, 0.10801, 0.078221, 0.094402, 0.055249, 0.05309, 0.098602, 0.120373, 0.153187, 0.165545, 0.152056, 0.055841, 0.051194, 0.016289, -0.009929, 0.027615, 0.000504, 0.000504, 0.000504, 0.000504, 0.000504, -0.000442, 0.078397, 0.098307, 0.17347, 0.221165, 0.233624, 0.284078, 0.285091, 0.17481, 0.229757, 0.406949, 0.314168, 0.230587, 0.319653, 0.262586, 0.178593, 0.123547, 0.106888, -0.0113, -0.017244, -0.000442, 0.000504, 0.000504, 0.000504, -0.000442},
		{0.000132, 0.000132, 0.000132, 0.000132, 0.000132, 0.000132, -0.000151, 0.000132, -0.000151, 0.000132, -0.000151, -0.000151, 0.028468, 0.024362, -0.010763, -0.006694, 0.000132, -0.000151, -0.000151, 0.000132, 0.000132, -0.000151, 0.000132, 0.000132, 0.000132, 0.000132, -0.000151, 0.000132, 0.000132, 0.000132, -0.000151, -0.000151, 0.009273, 0.032287, 0.125583, 0.162205, 0.172235, 0.225592, 0.33324, 0.32271, 0.317768, 0.302425, 0.299705, 0.207356, 0.195709, 0.258865, 0.347893, 0.259379, 0.22323, 0.150625, 0.094462, 0.054758, 0.000132, -0.000151, 0.000132, 0.000132, 0.000132, -0.000151, 0.027186, 0.031752, 0.096396, 0.173567, 0.304628, 0.367364, 0.378905, 0.347332, 0.305674, 0.313629, 0.165388, 0.134514, 0.091132, 0.099063, 0.157819, 0.073928, 0.036023, 0.151745, 0.115862, 0.186384, 0.167058, 0.203928, 0.167203, 0.030594, 0.000132, 0.000132, 0.000132, -0.000151, 0.054309, 0.068392, 0.077143, 0.144953, 0.177701, 0.193478, 0.12963, 0.134948, 0.137431, 0.141387, 0.024099, 0.069949, 0.006292, -0.031122, -0.012238, 0.012652, -0.00545, 0.044197, -0.037281, -0.021191, 0.067088, 0.148365, 0.032955, 0.075438, -0.000894, 0.000132, -0.000151, 0.000132, 0.027997, 0.096328, 0.048313, -0.040998, 0.009681, 0.03009, 0.00862, -0.042027, -0.0153, -0.007099, -0.01105, 0.00267, -0.015217, -0.026925, -0.032276, 0.018746, -0.048225, -0.03879, -0.018324, -0.012963, -0.002835, 0.007649, -0.065236, -0.005587, 0.014804, 0.045126, -0.000151, 0.000132, 0.079558, -0.014652, 0.019025, -0.061486, -0.045073, -0.045752, -0.071658, -0.077446, -0.031542, -0.000313, 0.01045, 0.029808, 0.039487, -0.001048, 0.002242, 0.052462, 0.016751, -0.038534, -0.053804, -0.051987, -0.02557, -0.050621, -0.020506, -0.014798, 0.009645, 0.030326, 0.000132, -0.015948, 0.02049, 0.007811, 0.003339, -0.09788, -0.095565, -0.116545, -0.14267, -0.105483, -0.037446, -0.019109, -0.042704, -0.025469, -0.018448, 0.003455, 0.028638, 0.062597, 0.068003, 0.028564, -0.016139, -0.009046, 0.009067, -0.080741, -0.103637, -0.080892, -0.113368, -0.031384, 0.000132, -0.06605, -0.001097, -0.068467, -0.002317, -0.006218, -0.060378, -0.161255, -0.11831, -0.03472, 0.019123, -0.005566, -0.020671, -0.035288, -0.051021, 0.005268, 0.018796, 0.029664, 0.017505, 0.05653, 0.001476, 0.039676, 0.05093, -0.025467, -0.007892, -0.091372, -0.122294, -0.029609, 0.000132, -0.036401, 0.001891, -0.157666, -0.060115, -0.116636, -0.104275, -0.103185, -0.056339, -0.021341, 0.029996, -0.010033, -0.01256, -0.013333, 0.02234, 0.026669, 0.05738, 0.062284, 0.013118, 0.067407, 0.039815, 0.059334, 0.015943, -0.007429, -0.01109, -0.163827, -0.081849, -0.067769, -0.000151, -0.028789, -0.016538, -0.115818, 0.087147, -0.034102, -0.033039, -0.024693, -0.061251, 0.015153, 0.02652, -0.056765, -0.007486, 0.06913, 0.086499, 0.044512, 0.011437, -0.011805, -0.010711, 0.049747, 0.023347, -0.012527, -0.040858, -0.01098, 0.017122, -0.254662, -0.164781, -0.054565, -0.000151, -0.031687, -0.026161, 0.02875, 0.094377, 0.121721, -0.002552, -0.03669, -0.079276, -0.020534, -0.084487, -0.070539, -0.033599, 0.014425, 0.072517, -0.059862, -0.118725, -0.093189, -0.059104, -0.038727, -0.037364, 0.00884, -0.042887, 0.060594, -0.061073, -0.306248, -0.249449, -0.079223, -0.000151, -0.024191, -0.012184, -0.0339, 0.08696, 0.148172, 0.057975, 0.003259, -0.042133, -0.049544, -0.090743, -0.087528, -0.051576, -0.003511, -0.040824, -0.183841, -0.183689, -0.148226, -0.135872, -0.038099, 0.023257, 0.105904, 0.125312, 0.123036, 0.107867, -0.216825, -0.216787, -0.070523, -0.003282, 0.00436, 0.018627, 0.052039, 0.072105, 0.093313, 0.11523, 0.039999, 0.029441, 0.034898, -0.110143, -0.092881, -0.045761, -0.026427, -0.111531, -0.175891, -0.147643, -0.060513, -0.05324, 0.012449, 0.073685, 0.160022, 0.177313, 0.250325, 0.303253, -0.073086, -0.08676, -0.001917, 0.000132, 0.015437, 0.022903, 0.07172, 0.095071, 0.047808, 0.1728, 0.122445, 0.119145, 0.065294, -0.050031, -0.044798, -0.029284, -0.074157, -0.122531, -0.077194, -0.06956, -0.058039, -0.007496, 0.031528, 0.091249, 0.156897, 0.22863, 0.187389, 0.234532, 0.017812, 0.020504, 0.067551, -0.005085, -0.013565, -0.006795, 0.03889, 0.011899, 0.011274, 0.114451, 0.132794, 0.142543, 0.094138, 0.044139, 0.051215, 0.027369, -0.003043, -0.015714, -0.011878, -0.04644, -0.06469, -0.011031, 0.051887, 0.095328, 0.177793, 0.134244, 0.017979, 0.042837, 0.106264, 0.022691, 0.076977, -0.004108, 0.009591, -0.068745, 0.018617, -0.0327, -0.036387, 0.005199, 0.089695, 0.164206, 0.142111, 0.139984, 0.117522, 0.071593, 0.007047, -0.039484, -0.014692, -0.01776, -0.021925, 0.005504, 0.044215, 0.121306, 0.1082, 0.013768, -0.094545, -0.04967, 0.179999, 0.037924, 0.003511, 0.000132, -0.028243, -0.015739, 0.048834, -0.020051, -0.047906, -0.016999, 0.053521, 0.12139, 0.19853, 0.235562, 0.162601, 0.029101, -0.045043, -0.031846, -0.012594, 0.016791, 0.006114, 0.011405, 0.051943, 0.045094, 0.074148, 0.034792, -0.05224, -0.07795, 0.338525, 0.074294, 0.011601, -0.000151, -0.041642, 0.024848, -0.020531, -0.090265, -0.095762, -0.032311, 0.025831, 0.120775, 0.185092, 0.232534, 0.126146, -0.011683, -0.09398, -0.016927, 0.028646, -0.002693, -0.038481, -0.023577, 0.009108, 0.049985, 0.054228, 0.07193, -0.068268, -0.059522, 0.292942, 0.051885, 0.023348, 0.002913, -0.036489, 0.006717, -0.093396, -0.114442, -0.134217, -0.014306, 0.055843, 0.121534, 0.244361, 0.250705, 0.083985, -0.0863, -0.122563, -0.031594, -0.014396, -0.047866, -0.032783, -0.030551, -0.00594, 0.032507, 0.011659, 0.03969, -0.023225, 0.037529, 0.356936, 0.035101, 0.04579, -0.003589, 0.027555, -0.014658, -0.000205, -0.110241, -0.090439, 0.032529, 0.044415, 0.103975, 0.204196, 0.191235, 0.027603, -0.109656, -0.11963, -0.087266, -0.066216, -0.03399, -0.053228, -0.053725, 0.009733, 0.050085, 0.036573, 0.095064, 0.104501, 0.168411, 0.273996, 0.118558, 0.028917, -0.000151, 0.059034, 0.019622, 0.019738, -0.012391, 0.008766, 0.062575, 0.092244, 0.135185, 0.165409, 0.143103, 0.017911, -0.077133, -0.123545, -0.115276, -0.118171, -0.115386, -0.075641, -0.039613, 0.045038, 0.020511, 0.054274, 0.061435, 0.091097, 0.132739, 0.240842, 0.087263, -0.003029, -0.003307, 0.025446, 0.033812, 0.10179, 0.03481, 0.095225, 0.122074, 0.120169, 0.134466, 0.14088, 0.102833, 0.021912, -0.006217, -0.044509, -0.084433, -0.080147, -0.053499, -0.063517, -0.0357, 0.01489, -0.009666, -0.014502, 0.034926, 0.056615, 0.14033, 0.192742, 0.073391, 0.016783, -0.003024, -0.003015, 0.002776, 0.108513, 0.006022, 0.1233, 0.112972, 0.135346, 0.161408, 0.143518, 0.119558, 0.06124, 0.043442, 0.016352, -0.061072, -0.052069, -0.035793, -0.091991, -0.055616, 0.000222, 0.002377, -0.016706, 0.040973, 0.076341, 0.03897, 0.059884, 0.001519, 0.019534, -0.000151, 0.000132, -0.017086, 0.070383, -0.101473, -0.054742, 0.002345, 0.035635, 0.090264, 0.077676, 0.054834, 0.028621, 0.034216, 0.03126, -0.019787, -0.028041, -0.06715, -0.104789, -0.044767, -0.038786, -0.02411, -0.016953, 0.055932, 0.138021, 0.089819, -0.027039, -0.095598, 0.000132, 0.000132, 0.000132, -0.035126, -0.148806, -0.144605, -0.213638, -0.166042, -0.063198, 0.031168, 0.044239, 0.050078, 0.043198, 0.032757, -0.052327, -0.071434, -0.08572, -0.103972, -0.113454, -0.090106, -0.015414, -0.003054, -0.018996, -0.010837, 0.113908, 0.074267, -0.01492, -0.032134, -0.000151, -0.000151, -0.000151, 0.028592, -0.103963, -0.108233, -0.121339, -0.096088, -0.080445, -0.017861, 0.012082, -0.006267, 0.034046, 0.032753, 0.025494, -0.065942, -0.143202, -0.1391, -0.106388, -0.006351, 0.162135, 0.18122, 0.062422, -0.010384, -0.022055, -0.005973, -0.028295, -0.031766, 0.000132, -0.000151, -0.000151, 0.000132, 0.02543, 0.067675, 0.008297, 0.013334, -0.008236, -0.011492, 0.01946, 0.00123, 0.074481, 0.167501, 0.137526, 0.099284, 0.014735, -0.023656, 0.074335, 0.103035, 0.08805, 0.073301, -0.008231, -0.063836, -0.06742, -0.03147, -0.019123, -0.000151, -0.000151, -0.000151, -0.000151, -0.000151, 0.000132, -0.042058, -0.051549, -0.026853, -0.052835, -0.051589, -0.061142, -0.069989, 0.035224, 0.036314, -0.056759, -0.070627, -0.05581, -0.075181, 0.028003, 0.060596, 0.07329, 0.037993, -0.03111, -0.065668, -0.058093, -0.000151, -0.000151, -0.000151, 0.000132},
